solver_type L2R_L2LOSS_SVC_DUAL
nr_class 2
label 1 0
nr_feature 4096
bias -1
w
0.02321887200945343 
-0.005927314754957766 
0.007465055981058711 
-0.01275403205450518 
-0.001664765846556672 
0.005996858526403757 
-0.007737115640820557 
-0.002469483891387206 
0.01500353659252586 
-0.002299988078164391 
-0.002822833532909463 
-0.003388228431133006 
-0.006365297378642183 
0.001166767277794572 
-0.03386637279680831 
0.01343444706928771 
-0.01569501265158851 
0.01493355593517754 
-0.002582840627314407 
-0.02754300296437226 
-0.01435108927430468 
0.01239663705024618 
0.02948361389560935 
-0.003337581909820309 
0.01397636231291557 
-0.008226840293689789 
0.0009860203557430999 
-2.032879073410321e-20 
-0.01133028564184065 
-0.00532341076591107 
0.01118421632132256 
-0.05347195774056977 
-0.01944484279424127 
-0.0389902192204689 
0.03388487728230631 
0.05909739588212914 
0.01506455862287137 
0.03475432979896623 
-0.0007398770585737411 
0.01257248190988406 
-0.006952187695321477 
0.007932366334940901 
-0.02730391438163471 
0.03676880276837979 
-0.027283278229524 
-0.007149948535412255 
0.008524980650265824 
0.02110522668093908 
0.02173359043157034 
0.003252943777339869 
-0.01962507109354082 
-0.02169047956819114 
-0.002279984949182538 
0.001577489074469805 
-0.0794464072586728 
-0.03235480281618755 
-0.006289777124408487 
-0.01834568887110034 
-0.003874693383567556 
0.002354351458313625 
-0.04013684215181487 
0.04212577593809641 
0.01908811940386305 
0.01133052427091224 
0.001241504181535454 
0.03640272501175703 
0.01698334075856283 
0.01438840263889235 
0.01480771060923116 
-0.01288115831229189 
-0.02904845069364679 
0.004628902248152637 
7.278848946370234e-05 
0.01093096798688442 
-0.03095537563224432 
0.00723756854542191 
0.03477497471641652 
-0.01950918352284654 
-0.004947859042411998 
0.04361353677767889 
0.01142291308442765 
0.01398990080939975 
-0.002763071397390797 
0.007113759960861258 
-0.01372366926980004 
0.01325483692516118 
0.01121785088588278 
-0.003921031348768979 
0.005829609527634761 
-0.01517179535114726 
0.02505554357810685 
-0.02368039513429315 
-0.01837539024612407 
0 
-0.00232568886547006 
-0.002561980551826234 
-0.0001586297325909169 
-0.01589312480474079 
-0.03443006433861577 
-1.141526692791002e-05 
-0.02293855996509579 
0.0008438529893761321 
-0.01685187739837655 
0.002076694594157756 
0.001856768266723195 
-0.001163355657106151 
-0.00549084519087839 
-0.05023859953199918 
-0.01112477806824514 
-0.0223910639982415 
-0.003672956556349445 
0.04912192905509719 
-0.007283861562440921 
-0.003511349145021231 
-0.03115533529660477 
0.02467629757806112 
-0.001337253012957375 
-0.0142487235669214 
0.009095033681009527 
0.008025999964251648 
0.01405474176651201 
0.01544388816020895 
-0.0127613382953634 
0.0002131054388651529 
-0.006997070402903868 
-0.01201357648750582 
0.00620775343518983 
-0.006382606757896636 
-0.007732113053541731 
-0.01027240664974917 
-0.003931752439381883 
0.02012045726235751 
-0.05873854759071752 
-0.02155440091876917 
-0.02519944014083451 
0.01105015207339878 
0.03861756900611225 
-0.002036534048122703 
-4.235164736271502e-22 
0.004375514878407879 
0.00361798320484519 
-0.0006916477601716028 
-0.0003731167642266427 
0.01583413852790959 
0.006529471185497686 
-0.006721292234157791 
-0.001891782685353245 
-0.003640058682495026 
0.001125736410081134 
-0.01281667479178263 
0.002645836522705317 
0 
-0.00490675558338314 
-0.00443377486034197 
-0.008325694980957867 
0.0288087859930246 
0.03854618852623302 
-0.02409338587902938 
0.01285025220271603 
-0.004096723443062309 
-0.0004951535481859124 
-0.01176339703086159 
0.000674193287042489 
-0.01075764607623515 
0.01768416673623532 
-0.01032337256612504 
0.02510669703562399 
-0.01876757697839935 
0.01491919687915505 
-0.02066364364951653 
-0.003124955789635374 
-0.01670992164398312 
0 
-0.03166796530015538 
0.01125209654075648 
-0.005105256205784367 
-0.01920501401199175 
-0.02189370977879438 
0.01069233595621443 
-0.02147197718395561 
-0.01807708919829855 
-0.001248852665436343 
-0.001205978494177183 
0.02705180061369793 
-0.02051757532822986 
0.01129591746186007 
-0.007811194252170113 
-0.02045392986983451 
-0.03164217642403475 
-0.009705746830902581 
-0.03116305516302472 
0.001696808647639195 
0 
0.01160865523317519 
-0.0469416854694235 
-0.03989684587747983 
0.01170111391173029 
0.0004479687874278852 
-0.001238887443748416 
0.030594897771185 
-0.0001551032218018783 
0.005479978199309154 
0.001822381722576876 
-0.01085691387620579 
-0.0249904063079481 
-0.02219254287916112 
0.03986253195520292 
-0.01270485512858609 
-0.0191619072731081 
-0.0083572603942612 
0.00545135151924587 
0.009873626201558371 
0.01718681860426201 
0.01996022244081473 
0.01179980920775665 
-0.000600451329002616 
0.0468145288836668 
0.009187964742652226 
-0.002830725684375506 
-0.002974520847525373 
0.002956089810595586 
0.004204433616737666 
0.01932000874148194 
-0.01014144204514539 
-0.009742347079197338 
-0.02095465387085382 
0.0216636663367897 
-0.003530820395758718 
-0.01210610005580391 
-0.00288656814420552 
-0.010826335203423 
-0.01249491090302737 
0 
0.00614175727204315 
-0.02751057452162496 
0.02030507986841844 
0.02566653814080121 
0.02736306275647035 
-0.005988718457015248 
-0.0005213120137853006 
-0.0005196490959962406 
-0.04986519624150866 
-0.00358976346357826 
0.02365801177174119 
-0.01191204970353406 
0.02329548621895367 
-0.01092700723946261 
0.000712936975187678 
-0.0248853064457961 
-0.001492073106525281 
-0.009921021152231238 
-0.0008460149463504771 
-0.003003916423202159 
-0.02335220236610536 
0.02284136005033802 
0.01437615812242166 
-0.005063910287759517 
0.002450450257587955 
-0.003072944221509305 
-0.01179304281266362 
-0.007818589108440974 
0.03150308104262214 
-0.03032211938424938 
-0.001549210248071139 
0.02370105084478912 
-0.02238747708119258 
-0.009062370444140374 
0.04575073135867898 
-0.01074822412091962 
0.01054128592946348 
-0.01022907926717463 
0.01891447111093534 
0.03940030183337564 
0.0142873716704105 
0.03212042793289518 
-0.03945920737029875 
0.01632683819966814 
0.001896284979210244 
0.03030662433552279 
0.0001983951054446055 
0.02349563975462702 
-0.006257921005435806 
0.0197627442090816 
-0.02309405924622789 
-0.0001858982160147495 
0.005223254131643728 
-0.04600948374756522 
-0.02547153445691129 
0.008304952466355601 
0.01229621379898534 
0.0218621360386329 
-0.0005186074149356642 
0.01127846165601184 
-0.05058517917582021 
0.03159231431557412 
-0.007053111680369896 
0.007495399580050843 
0.01839925471986407 
0.01942956932457171 
0.01359583955666798 
-0.01023620450571647 
0.001173764721190302 
0.03514783281802394 
0.006853314131427515 
-0.03660243952498818 
0.0250206678146767 
0.02299486175611304 
-0.005132595057968992 
0.0138555656047839 
-0.02470740654530011 
0.00218382489619607 
-0.0003588363639573477 
-0.009801412661593602 
0.01801740302681975 
-0.01664641835233126 
-0.02300009226001308 
0.01597796676923989 
0.004379174815551207 
-0.0280072753251906 
0.001855880887250925 
0.01833739927433916 
0.02163892370352409 
0.004566076349994524 
0.01702492572944842 
-0.02484062155911344 
-0.000678983922361447 
0.02349539285128439 
2.626273216733194e-05 
-0.0245916913592906 
-0.03577448584457545 
-0.000209310258209917 
0.01611964429179072 
0.04271611327953025 
-0.01172825588619468 
-0.03513814893760979 
0.008844346772615842 
-0.001941817221511115 
-0.009522399430948228 
-0.03994091643914027 
-0.020180245967194 
-0.01924385331076667 
-0.01057154390452501 
-0.03430074776691149 
-0.01033263941730695 
-0.001340127882599553 
0.007969069822689051 
-0.02169643026900856 
0.0004612547398260209 
-0.003369955440616604 
-0.006095142923987297 
-0.01965744399095824 
0.005172599277598339 
0.01592988527107711 
0.006311774121581017 
-0.03126191875633007 
0.03298588157269688 
-0.005196860271694223 
0.001586153875884503 
0.0005625537586614548 
-0.007911189426398386 
-0.03627854660777265 
0.03085473610632243 
0.02115579296199752 
-0.02366716908308213 
-0.02407200473684 
-0.06181775125105863 
0.01758853488017977 
-0.01401705985667862 
0.001017716354290686 
0.01941237321687017 
0.00235753723940621 
0.000669668053633856 
0.02873702814602552 
0.000843449855427723 
-0.009750642712421169 
-0.008951952411578964 
-0.01047470144226862 
-0.02722620443562474 
0.01001464376805019 
0.001794807420083654 
0.01644002967122186 
0.005334250452488629 
0.04754329334355577 
0.004770500422334536 
-0.001035219983123379 
-0.0006710581825279651 
-0.02047008980089171 
-0.0009629767774148657 
-0.006506795036052749 
-0.003832252956691607 
-0.01970529133597559 
0.007695339767344645 
-0.02251746051832032 
-0.0088803777441872 
-0.04835631649834147 
0.002166123667301725 
-6.66442215104133e-05 
0.06006315058917193 
-0.005885268137102108 
-0.01165366944132653 
-0.03444537435167052 
0.05725089254163577 
-0.03939279859404548 
0.006133461519191872 
0.00349459384839875 
0.03530401558242754 
0.02946058580907041 
0.04093680571498133 
0.0004224223735499287 
0.004100122760421218 
-0.009395437101984049 
-0.004908382686900956 
-0.01789214255731889 
-0.008245110540954831 
0.02228071480647826 
-0.01062126871148634 
0.03167598775397316 
0.03106586478925778 
0.01427528021415178 
-0.01718885185770401 
-0.02185968610044698 
-0.00759827338321734 
-0.005431567946767104 
0.009313513753717867 
0.005193073050937623 
-0.01968849169880901 
-0.03955426273396305 
-0.004932132834734671 
-0.01039838450726135 
0.03049219306718229 
0.02522824739014695 
0.01643110059167497 
0.001019912207880567 
0.0146804972000635 
-0.002298791694683957 
-0.008446748057676319 
0.006384317717677963 
-0.002037599636594402 
-0.005051779582434406 
0.04176325917806164 
0.01328212192772031 
-0.0288923289918758 
0.004761165039978657 
0.05284644718281818 
0.005303781913299419 
0.005121607564205084 
-0.01403626117113609 
0.02255649193948031 
0.001212929432021501 
-0.008703076951891918 
0.0006666234607102261 
-0.01566533503727354 
0.01614530971089784 
-0.01039303064158289 
-0.00840718633345431 
0.01398722797119908 
-8.505435471646943e-05 
0.003653526191994909 
-0.00258426755663316 
0.01470276569350552 
0.005272628947398578 
0.0004162835266953256 
0.0004381033790729387 
0.01380510420260033 
0.02234884271837614 
0.0239415587773422 
4.19558531430284e-06 
0.006558061277027946 
-0.01394330423873694 
-0.0008903142575193867 
0.0386245737149672 
-0.01339766514586115 
-0.02314275228295502 
0.03722014639134905 
-0.004803172598987053 
-0.01005348453208961 
-0.05861143541192841 
-0.009153123654088722 
0.004940145074496042 
-0.02382080896750908 
-0.03110394293273485 
-0.01968116555396841 
-0.02823872869244401 
0.02022609488152745 
-0.01717092022491771 
-0.001301693354548397 
0.01021085712320192 
-0.002875474405035835 
0.04777160211725844 
0.01628523076988142 
0.01240289374722232 
0.004384944424740936 
0.0258292974197267 
-0.0006750810364541436 
-0.005098226194969751 
-0.02068839823096838 
-0.02824728611074909 
0.03768521809080746 
-0.002645052528114988 
-0.00525168589926289 
5.459802581887875e-05 
-0.01164106401951519 
0.01034355936633392 
0.002995186392603812 
9.431683323686303e-05 
-0.01452266874361883 
-0.0009733807028624381 
0.0174475614010467 
-0.005772984285274543 
0.001871851982807748 
0.03587767362928572 
0.005567427257833229 
-0.01740015765991339 
0.01100860358041765 
0.01201949627723287 
0.01739651878432325 
0.007058475968756485 
-0.005951360557529533 
0.01319559224515903 
-0.0252066008039315 
0.002501832889074223 
0.005409963786719279 
0.009110813739314525 
0.03128476026690746 
-0.002708320438056197 
0.04457526847669254 
-0.01014184546343404 
-0.004500246742131302 
-0.008842767141318949 
-0.02016173582699583 
0.001636915213616191 
-0.006611823093941102 
0.005014209137912205 
0.002267426467907975 
-0.0004680531898648432 
0.00177201172304254 
0.002922625205254257 
-0.009137684029209009 
0.004480364766248845 
-0.02059588447978058 
-0.008076314322999109 
-0.01403662083413235 
-0.02543344597650661 
-0.02787489456724581 
-0.007224444829284035 
0.02386683875185189 
-0.0008886077601356897 
-0.01122457579324615 
-0.001531474192663391 
0.01783271665127438 
-0.02682882443079519 
0.01947373968283187 
-0.02338447392265066 
0.003024774139074237 
-0.06343572374405247 
0.002875836628424644 
0.004605599180413091 
0 
-0.009637999068153989 
0.00191841894742655 
0.02031278108737387 
0.03439599132642319 
-0.002696533154528921 
-0.01350887343080303 
0.0257652793620003 
0.01370371540350976 
0.003977408680571398 
-0.01990411842442777 
0.02645789175448328 
-0.002281313672169894 
0.03566378289011237 
0.04911896394192943 
0.04009480731646546 
0.02654622386959499 
0.00797043245832715 
-0.02171905570677512 
-0.002232126836532047 
0.01167604958340539 
0.001980615059207252 
0.004819311018586846 
0.03073023949320703 
-0.01384807443546177 
0.0140470273857088 
-0.0140668017381485 
0.0002224869721710885 
0.03523571991200087 
-0.01876656721758645 
-0.006445255833811928 
0.01907405459289479 
0.02974334653337059 
-0.006853059364001042 
0.01432753866799683 
-0.008267689915562327 
0.01845035130493982 
-0.003542244717205988 
0.01896909459202132 
-0.00134130359520845 
-0.02279611934545481 
0.009918250016432132 
-0.01291286745094827 
-0.001215510095014787 
-0.02146947655694961 
0.003026429796826289 
-0.01257860162926731 
0.01185039069145045 
-0.01006627618566358 
0.01694486097393774 
0.003938120163966433 
0.02461612345487111 
0.01653027473231154 
0.007171999676149399 
-0.006949561568753302 
0.004550402985650592 
-0.01073508512543886 
-0.01124990857504309 
-0.02074185529081378 
0.0005393772245657648 
-0.02984770793811785 
0.0005294705693928406 
-0.006364181337704777 
0.02127836392141247 
-0.007468874075438687 
0.01681143069077175 
-0.01356738554123289 
-0.008462390990480805 
-0.009956170440393618 
0.01040640077786121 
-0.005791233638979735 
-0.006307165899273764 
-0.02087585279616624 
0.00888952077080974 
-0.01238144466960684 
0.03034050115259091 
-0.002505461422762123 
0.006963969275634028 
-0.007570624765487465 
0.004838963892559943 
0.02906471195449316 
0.01930262388621806 
0.0131699438304957 
-0.001724019812602697 
0.03552176877664259 
-0.0171414616909994 
0.01217009779990441 
0.005126195164608467 
-0.002018982324683775 
0.002493047265979639 
0.01845833898380864 
-0.03786995693582011 
-0.04622428817599559 
0.004453777197190608 
-0.01340484206522701 
0.02596425310169754 
-0.003051288802172683 
-0.002478861125956148 
-0.02193409706862202 
-0.003220063872329767 
0.02418576847925574 
-0.02223804700694634 
0.01978934752324635 
0.002327088021204913 
0.004415104105291865 
-0.03779987184220377 
-0.00714867858116095 
-0.04088203770490969 
0.01455068094347042 
-0.004697831683108602 
0.00679137475156008 
-0.01144986185565277 
0.006226025250855059 
-0.001112227528010104 
-0.002758166531129337 
-0.005078051700604066 
-0.01273719431816391 
-0.001089565802082699 
-0.001025623495285536 
0.02017692834800652 
0.003750740235525751 
-0.002256616796179164 
0.02650374322166875 
-0.02013602726932706 
-0.02973356332477034 
-0.0371251201587806 
0.004546312699245491 
0.002338770996656486 
0.00546013391396172 
-0.0002799886129610637 
-0.05188898130827615 
0 
-0.003735333501398411 
-0.03240181716532029 
-0.001913229186485708 
-0.01682037020189938 
-0.04839047326908504 
-0.01105714540316629 
0.008732567102168546 
-0.005312328099572629 
-0.006486344747768267 
-0.03012723656888538 
0.005834381656845558 
0.006823850189263335 
0.01102253433433998 
0.0143252048585864 
0.03755526365396082 
-0.00545254526096243 
-0.00304907242036744 
0.002679405962961544 
-0.01380287880259357 
0.001187391619966071 
0.006831594016960101 
0.01476464157401068 
0.009259317462360722 
-0.00614016329312674 
0.02368124352153718 
-0.04516350216725899 
0.009249463873339058 
-0.01408512781641796 
0.01447337536571334 
-0.01170407645653718 
0.0002077567020249007 
0.003187346318755804 
0.007926710403720347 
-0.03883995336793419 
-0.003751257923692962 
-0.01795514349983915 
-0.0002463101529531714 
0.01006521935266189 
0.0141001255964783 
0.008748595956861378 
-0.02113863481935536 
-0.02246795008613186 
-0.004479322751396246 
-0.0304531904297558 
-0.01215419522261791 
0.04770196777962085 
-0.001610933168985431 
-0.001348619181427155 
0.01150960488001815 
0.02612931634060738 
-0.006113050539402549 
0.01230658640163971 
-0.002153287195111263 
0.002896474630192292 
0.001137177923674732 
-0.0442945834479018 
-0.008393506475349382 
0.01321107115500694 
-0.03841061059561321 
0.009976815967911024 
0.03091622396659 
0.0158839449040864 
-0.0309936308831571 
-0.000647049524637284 
-0.001840025379390554 
0.01667387407634385 
0.0002160729081591751 
0.02116944695166309 
0.0004864564181737752 
-0.03400050406841356 
-0.01193720251015553 
-0.00344943302269108 
-0.03788676569486549 
-0.001002665601963847 
0.07105061473690241 
0.04013618438123101 
0.01883867607494967 
0.006408396633027752 
0.009298310660500325 
-0.02964656623665322 
0.009974250774259683 
-0.006782306315515398 
0.02083296907473438 
0.03461390953033024 
-0.008051362443539404 
-0.0100296116314714 
-0.002471949165399976 
0.01034149375279059 
0.004492503445457287 
0.03003914262978082 
0.01352101792221022 
0.001833795128280857 
-0.02293499546308809 
0.001613896931287272 
0.004808694729408531 
0.01879589131730416 
-0.007506353214920184 
0.01304440911668603 
-0.03623010194470087 
0.001812617835225539 
0.002616527173873467 
0.004692299709889669 
0.01088992566346433 
0.02168223659302056 
0.01277607570844512 
-0.002230996585832618 
0.02053344788415293 
-0.04232646432969532 
0.03458256811860808 
0.004267774103994659 
0.005129662751723714 
0.01175646742976896 
0.01189211906161599 
-0.0002393853613514613 
0.01451560128483825 
0.01407368816660837 
0.004958018756687121 
-0.01075717006432079 
0.01063798879843302 
-0.001258749099108009 
0.02262822834742552 
-0.0363502347988861 
0.01468081579492063 
-0.02400685845651238 
-1.165892984269209e-06 
-0.01109093641426461 
0.009507089969746935 
0.05225973480585087 
-0.02421132507234727 
0.009977868756805397 
-0.01461779364796464 
0.008666378647722281 
-0.006141191938975188 
-0.007377480040195029 
-0.03673501792046342 
0.003451573792761152 
-0.001199724273256319 
0.003769637445973387 
-0.003900491250635968 
-0.009430015956199833 
0.01549750239837381 
-0.04202743251051257 
-0.006500484635712146 
0.01317458348254114 
0.008501028105287384 
0.0118641599590606 
-0.002056388468047481 
0.02675126100887455 
-0.0009818721634801122 
0 
-0.07335911801827255 
-0.02400289916181258 
-0.001822408449987524 
0.01228296334276639 
0.0013936902351988 
4.730973293976215e-05 
0.005430695862931286 
-0.005534286742782548 
-0.04914440397362111 
-0.02244112986995047 
0.01292624349795041 
0.01898451601258195 
0.008656715923120869 
-0.01806353686542473 
0.01213841949543538 
-0.006403793978740601 
-0.05381939542041981 
0.0268339964937206 
0.01156939172645508 
0.04798731770829025 
-0.001878775942242131 
0.000111207285133037 
-0.005920147503784994 
0.02289084912031323 
0.0116770212774352 
0.006732064109546147 
0.01095866994012122 
-0.009579637905025794 
0.02886521407828237 
-0.01903117994189469 
-0.00392226826496548 
0.01281419149724486 
-0.03934771740748434 
-0.003587058237827879 
-0.006044425609900306 
-0.033412540588391 
-0.009952097980262207 
0.003621474012303931 
0.0175492858638768 
0.01335915885535759 
-0.00800310977510555 
-0.0005529584272806606 
0.02408042096941382 
0.0003223135386406464 
0.0490460095858058 
0.002649250642614457 
0.01968848599205465 
6.776263578034403e-21 
0.01122469805296841 
0.007684161096824526 
0.01745634054933062 
-0.003851408723056816 
-0.03659866857604459 
-0.01239922723537252 
-0.002781963965384226 
0.01211709393760775 
-0.00309748848644598 
-0.01800887777982721 
-0.005027996476237733 
0.02857889858644558 
-0.01082923958470142 
-0.0142511533813396 
0.001249054629124615 
-0.01082724790182041 
-0.001332888734588113 
-0.06478559396965933 
0.02948416742030582 
0.005616893183538678 
-0.03941055740196256 
-0.01376163889138941 
0.01596320023320509 
0.009625872072624589 
0.001705483013289987 
-0.01528338635088573 
-0.01389027410418102 
0.01268669632862645 
0.002274967545193003 
0.02156169014490069 
-0.01713370252143358 
-0.02423622112744102 
-0.02986244780811085 
-0.001388706143990859 
0.003314722642510706 
0.004256064971242637 
-0.004474636966800527 
0.007523349137638706 
0.02291609795265873 
-0.01770776811317987 
-0.01868074163539122 
0.001646199536627107 
0.004310964471983678 
-0.02049336968825497 
-0.004582508640058722 
0.002674497045386338 
0.0416882638811395 
-0.03515145623070805 
-0.008680071265817201 
0.006943520178231201 
-0.01860342000545104 
-0.00195854148715988 
-0.0162680956160364 
-0.002986957470225372 
0.007198521093325617 
0.0003562338922608931 
0.03141024694744313 
-0.04061426495471809 
-0.008993643362988149 
-0.001439358891480807 
0.01564330776311051 
-0.002531971465066424 
0.02563509941021198 
-0.002613550602983341 
-0.03602007960340574 
-0.007414072247210063 
0.01434487334914923 
0.01745029192894864 
0.03702231255370824 
0.01980695092814764 
-5.988426664466135e-05 
0.002657427199488748 
-0.01511161955857712 
-0.0002445382044307249 
0.003993968429117396 
-0.02000557482954481 
-0.025264269065383 
0.02014392452983201 
-0.002333337384068641 
0.001482685385574885 
-0.005039016719710417 
-0.02307604579750321 
0.01574608581958147 
0.002510114657086295 
-0.005300118746128943 
-0.03754345262935113 
0.01585487705288644 
0.04245288257898541 
-0.002733601364644068 
-0.04241903791107748 
-0.02043216558643989 
-0.04319784673914001 
0.01265077555469546 
-0.002985997831973932 
-0.01734278502621444 
0.0107912517362304 
-0.003151278791884058 
0.004271854399071947 
0.01304845193361769 
-0.0033086595400189 
-0.01321533822113945 
-0.01604498323427732 
-0.03710358472167047 
-0.02836936667166109 
-0.0004893402455326343 
0.01368619506948588 
-0.04997495521069063 
-0.002571858608429964 
0.04776449812134862 
-0.005286989757283133 
0.0005537898694884426 
0 
-0.008004626103028999 
0.03196593103805778 
-0.03572768767977293 
0.01078966209046374 
-0.006655525664740128 
0.008572977157934496 
0.0396818418322946 
-0.002977628541283426 
-0.007359713739546823 
0.01352553463782076 
-0.01049313918031567 
0.00463332529027142 
0.004235503065807777 
-0.001238621132625502 
-0.01465892058250221 
-0.008873873396011861 
0.02218507473088222 
0.02043038911975255 
0.01330390040106389 
-0.003622862158945471 
0.0007393165454369394 
-0.008750060052640436 
0.006099546319010091 
0.01042070647129496 
0.00918714921718238 
-0.001808840870292442 
0.002224782497133075 
-0.01960922135094279 
0.002278588185899758 
0.003003562483522582 
0.003930799525690851 
0.008429845236597686 
0.06644953844819015 
0.007984246855874625 
-0.004721319600129097 
-0.004247091157453181 
0.006516349304674004 
0.004378649032135837 
0.001666783451835452 
-0.004254750146473968 
-0.009480058924410594 
0.02247647884435544 
-0.005562802532952073 
0.0008394463855796906 
-0.0132731607886417 
-0.009240572177530567 
0.02129322211772612 
-0.0006237987167828456 
0.02366071510133262 
-0.01058538804004691 
0.01551476325864118 
0.04219797603633737 
0.01424307076626549 
-0.00205821295656122 
-0.008255395111599253 
-0.01047487338165785 
-0.006099151642139608 
0.04850551867783691 
-0.01368815914874295 
0.007963035762946704 
0.002695894641939673 
0.0007551858895805993 
-0.003893926313081155 
-0.0193892373590188 
0.03030759864968457 
-0.03835532570154544 
0.005031499781363745 
0.0001087675311100339 
0.01447421086577089 
-0.02708523917978308 
0.02384530682614656 
-0.001665619190329646 
0.0376213227639243 
0.002071963383357059 
-0.06544165292406112 
-0.01117286765002541 
-0.006109897062161695 
-0.008503465784071889 
0.0112249705939367 
-0.0053122856482226 
-0.003825612065346419 
-0.00858747270855772 
0.01136513703987481 
0.05566163906662498 
0.0244149903936976 
0.001329784710139372 
-0.01690893840878354 
-0.03374061776014917 
-0.01275360385176727 
6.776263578034403e-21 
-0.00314574696921352 
-0.01287910864570458 
-0.003981092875302735 
-0.003454245972622435 
-0.02397102213336739 
0.004460242662504671 
-0.02478566819158443 
0.04335562812247844 
0.026200532099656 
5.082197683525802e-20 
0.02899510961638029 
-0.002365392336448484 
-0.01247708756687242 
0.02400046368775245 
-0.01541292997906991 
-0.01095071688264528 
-0.002329251777741612 
-0.02807057368231965 
0.00218388669408396 
-0.02859342972785545 
-0.01064498580677277 
0.006634461849029582 
0.001655922820013261 
-0.002919134011657845 
0.003232138486592148 
-0.004594667331994554 
0.0009716466030138895 
0.02446989680529328 
-0.01073540457537331 
-0.01365698806902285 
-0.003906115443077076 
0.001034377146007783 
0.003349018608451524 
-0.01035038781245371 
-0.02375590060436593 
-0.002039161346914834 
0.0002871643482206507 
-0.003604882270386875 
-0.001441919749495939 
0.003767285363704355 
-0.003817459910435848 
0.007032821860425526 
-0.003067537671694296 
-0.01644133927082533 
0.02197920586207098 
-0.02517532536962861 
0.0002929914942672081 
0.001369756617077113 
0.01303209625984306 
0.007011456561451707 
0.0002123594737360903 
-0.0344984331414865 
-0.01205409061629222 
-0.009455888741101724 
-0.00368702149384351 
-0.008965493671208448 
0.02612445061129523 
-0.004723079694461071 
-0.0163461350207141 
0.00892743355562042 
0.008318485411164525 
-0.008822189637428158 
-0.01216745341844092 
0.0102663440331727 
-0.02326243397098019 
-0.001771048696079016 
-0.01799208163743341 
-0.03082014523627139 
-0.01422435987375264 
0.00801214227388318 
-0.03360121048072048 
0.03169426574465602 
-0.01264445113038981 
0.03980656171568411 
-0.002662618469736991 
0.004244657245787434 
0.006218444597657273 
0.02924194179992396 
0.004170359363116253 
0.1002713966568479 
-0.006300591507633978 
-0.01209599239831665 
0.002619476716212637 
-0.01411971132435373 
0.002632817986202102 
0.01632172883340488 
0.005606890402674839 
-0.003901470498287816 
-0.02246292895628407 
0.008642752327806402 
0.001120306400116751 
0.001412641777456156 
-7.898381627225054e-05 
-0.0491331307074813 
0.0001036865563781529 
0.02962888349259185 
-0.03243524755928296 
0.03018426029152286 
-0.004595758459537472 
0.001824133273395381 
0.006012332637516708 
-0.02497222707386979 
0.01007699306181505 
0.00188544467293884 
-0.001064236653595072 
-0.02597230597431952 
0.0009750182943611251 
0.002831337136977067 
-6.881473066302538e-07 
-0.007918497484013264 
0 
0.03702254219814034 
0.01078085264343322 
0.01003659008939728 
-0.03457048728155156 
-0.03257585458708876 
0.008362702677077687 
0.010706293809647 
0.0115416895591287 
-0.00398027023171576 
0.02435200838424444 
-0.01428581352782801 
-0.003940846188343599 
-0.008931781588675974 
0.02744867233949073 
-0.005239095519263247 
0.01486491298061913 
-0.02620247717288788 
-0.009738818685972614 
0.06616232767684856 
0.03536865177232171 
-0.003745764445655984 
0.01395242040721159 
-0.01521537044501813 
-0.0172206229910359 
-0.00110033527500641 
-0.02031938327498623 
-0.02953513293261418 
-0.01465963731293423 
0.03811934824255865 
0.01151297640531989 
0.01238944019608004 
-0.01242991770424365 
-0.01569868974079488 
0.005323306678527826 
-0.03303362646516062 
0.004132296964372406 
0.01412409337525091 
0.06971121910139165 
0.002469553176441772 
-0.0006337570263817648 
-0.00903207079123821 
0.00374037620020712 
-0.0226918197042461 
-0.002873008259251736 
0.001957904931889577 
-0.008336103313192457 
0.01037980917800421 
-0.003673709930946959 
-0.0009153302003181059 
0.008781505142108291 
0.0008054068445397289 
0.02236639096336432 
0.00156640618750093 
0.04006081219523813 
0.01265220905869253 
-0.005223283831875984 
0.02661604534701003 
-0.02873026720743443 
0.002842747608102723 
-0.002552875603629595 
-5.176894415102107e-05 
0.004746736522608373 
0.04082845318006287 
-0.0004626121867114569 
0.02728627986747742 
-0.003205479535323535 
0 
-0.01198467217518354 
0.005352497256360654 
-0.01709304620737911 
0.03788092496820315 
-0.0002953883975500645 
0.003746744897827785 
0.01497256780028233 
0.03155063182004328 
0.006095061389802491 
0.00686194415699468 
0.002905873157007287 
-0.003560240826865181 
0 
-0.009565504405532502 
0 
-0.01617635780816533 
0.0128894881367893 
0.04885854422842335 
-0.03282909516423866 
-0.01709896400133067 
0.03442288253320609 
0.02287956120163993 
-0.008449528515176366 
-0.03966366622398314 
8.598726160675828e-06 
0.001168731561504184 
-0.00741177760150893 
-0.01412038579694034 
-0.02836747190774062 
0.04092505117627851 
-0.009589739345524729 
-0.002144493791970735 
-0.01100958638012139 
-0.00997932794043235 
0.006013479480299713 
0.01282574752393956 
-0.01361941383007993 
0.004611094367241404 
0.009937192925057611 
0.002848833158839705 
-0.003402081976237354 
-0.0001398260192361347 
0.03194172757878787 
-0.02017352327472646 
0.01507611317611503 
-0.03760470558857053 
-0.0206790352578516 
0.06150337548805924 
0.01476968675201699 
-0.002786506447028779 
-0.00786584844785353 
-0.03468244401742444 
0.02220270456692527 
-0.007878750715557976 
0.01516191805878156 
-0.04333828448770856 
0.002679989572014029 
-7.869260126201076e-05 
-0.0004569629944669371 
0.0003631353136878578 
-0.02008489597080413 
0.005881442629501853 
0.01851385981468389 
0.003487795072199152 
0.001934382703795582 
-0.001524859351192146 
0.005226678357300312 
-0.005416125961364149 
-0.01813149565000887 
0.0007723985130542219 
-0.01450431941881129 
-0.002904249780167387 
-0.001637572590894283 
-0.002382721895632699 
-0.007073077314279071 
0.00917293021186193 
-0.005028527236223679 
-0.004220554604157087 
0.01754612307205646 
-0.0116393106749532 
-0.008922802842586433 
-0.01843659755228433 
0.007429492489889912 
-0.009504022865786712 
-0.00433019294100709 
-0.01330062110631538 
-0.004098645015929593 
0.004020540263193362 
-0.03562961599288005 
0.0004932282570299905 
-0.003814732337839048 
0.009554961892609353 
0.000960921193943307 
-0.00120734288550052 
0.001464161818221443 
-0.003237892678425941 
-0.003442472192853533 
-0.04429124340573652 
0.02696178075899612 
0.04702896941392672 
-0.01777874378209516 
-0.02925150669069392 
-0.008573561286900563 
0.009147859253497634 
-0.0006454615775724655 
0.00722261783891081 
0.01564904532454372 
-0.03201115744796083 
0.04004872094857993 
0.01813375658164524 
-0.04193370797730066 
-0.002511464268421933 
-0.02932496609497702 
-0.005132565888888998 
-0.03910069473117916 
0.02206246389580408 
0.04193654549020595 
-0.005905640671468806 
-0.003123231866840507 
-0.0001590470591999259 
0.02197183709213194 
-4.427074310106779e-05 
-0.002450412872435129 
0.006653681214290861 
-0.002606997423583968 
-0.002246752095246408 
0.006897372704128057 
0.02043100259033798 
0.007009861029621989 
-0.0005910829689386805 
-0.0001484100067313989 
-0.02378193148999459 
-0.009949828631154912 
-0.04649861436416402 
-0.01382688450303529 
-0.008742720849879251 
-0.01766220126543274 
0.007132161165833851 
0.006225253333250639 
0.003008817706373066 
-0.03444736883848439 
-0.02902383732166733 
-0.00886454231706049 
-0.009410069123232953 
-0.001960240117648442 
0.005896910416598846 
0.0145525988830773 
0.06612739559886767 
-0.006335212969973118 
-0.01896279112217946 
0.04367810744778981 
-0.002593929909869491 
-0.0132062791254484 
0.0004998813692000692 
-0.03689570109051029 
-0.009800666973423638 
-0.007618972414984697 
0.007561646510246735 
-0.00773400222092549 
-0.004484289837039843 
0.0331967777908931 
0.008390491394245617 
0.002674764955123691 
0.03420436690089151 
0.01393230244981603 
0.01165924539188402 
-0.02684997014807042 
0.003781855278371898 
-0.05208874269813334 
-0.003552806735988312 
0.05353291580769923 
0.008802453286005615 
-0.01225285621531149 
0.05432488457233199 
0.0281659573004417 
-0.0001608544212206259 
-0.03118742415318391 
0.009999638525688387 
0.006820931683178537 
0.001413392892197507 
0.08784932062126329 
-0.01574193473875598 
0.01937660938172374 
-0.03201701902194775 
0.004264685256629345 
0.01748795668401515 
-0.0004876078094369863 
-0.0005419811170534167 
-0.007592333062838048 
-0.01136708324807349 
0.01279272078771619 
-0.003219103859047603 
-6.107438660358071e-05 
0.02142547983731899 
-0.01304160827708312 
-0.007332831396018293 
0.02990562860179491 
0.005528590451328879 
-0.001721836216927246 
-0.01890802405090592 
0.002123548598784064 
-0.001438512657048432 
-0.04105132116583504 
0.0009402862661004488 
0.03249143171854223 
0.002463706999582516 
-0.01433389757467548 
-0.008172358296585804 
-0.06173839416649055 
-0.04399086317281581 
0.0006223788667803224 
-0.01571876145484806 
0.01976510897795782 
-0.008961842362863386 
0.001590477081318039 
0.01437616423673403 
-0.007173820939526129 
-0.0331033893825798 
-0.01272639227771828 
-0.01192555388055604 
0.001007733533756512 
-0.0472224082099772 
0.01065011300886104 
-0.03402873763795883 
0.006364189252750209 
0.00575234190915168 
-0.01228687623547718 
0.01430043588618084 
-0.005250231977001095 
-0.01636918039892538 
0.008818510963069104 
0.01669783576500535 
0.006655150314644016 
-0.0001544945318598328 
0.01407714724768283 
-0.0003181719512112933 
0.01552669073935172 
0.0003073551880210111 
-0.007216132790327218 
-0.05554465141047629 
0.005275747629898577 
-0.006759164655828117 
0.007085685188498812 
-0.02251788309439636 
0.006066467858023808 
0.02157996268653857 
0.002273568499263401 
-0.01145598921995602 
0.01150385004628669 
0.006895177398155847 
-0.01733126552836155 
-0.008803419469282535 
-0.001401824624581242 
-0.001440807907032201 
-0.03710909025244185 
-0.001829329752055422 
-0.00197824483734255 
-0.005694504711210312 
0.01141051150730158 
-0.006194100056402444 
-0.0001486543808547948 
0.001235047494555403 
-0.007734138494560494 
0.00874148434989187 
0.00766548447220644 
-0.0108927724123215 
0 
0.00185442611303655 
0.03084832360018336 
1.457392363148671e-05 
-0.05526898205352065 
-0.02658323426519074 
-0.001471772765051633 
-0.006477233213058764 
0.001286174176587109 
0.03217050397625196 
0.002466710343700857 
0.003126441327438115 
0.002360429775248253 
-0.05312633322009652 
-0.01400562845762317 
0.0002669093006297967 
-0.007642486644594622 
-0.0007755034662647797 
-0.008023253995487275 
0.0007403001143525756 
0.01373356575857669 
-0.02012872758762279 
-0.03880858436359782 
0.09614814567773325 
-0.05721323288960492 
0.02573728546643191 
0.02260355650809186 
-0.006515012116937389 
0.01302576772450461 
0.001385263410019239 
-0.01307918040310292 
-0.001959310564590264 
0.009720179645753986 
-0.0006605145579533726 
-0.0201670017928087 
-0.01500626535778921 
-0.004278154751145805 
-0.009945200139379964 
0.02177827743544426 
-0.003622322836667084 
0.0008985238144053119 
-0.004880487505285792 
0.06171911552830692 
0.01000543237004838 
0.002190502925208158 
-0.0001440912176958007 
0.00530705947191381 
0.00213693264971552 
-0.005296265458575724 
-0.003006990835910484 
0.01273253449081463 
-0.007917862462124527 
0.03575106559137697 
-0.01821747668820751 
-0.003021830906026804 
-0.00608761625912997 
-0.003568994317096185 
-0.01822564832604954 
-0.01276375239367497 
-0.01902827922093155 
-0.01004440682643844 
0.0002980301736353433 
-0.02709755585039627 
-0.01478706951321698 
0.004766369384834974 
0.03254031210788452 
-2.074602566211127e-05 
0 
0.01313190975566303 
0.005507919398849198 
0.006911571843567024 
-0.01156996841726438 
0.004029881490551892 
0.01176090749937267 
0.01159642047798945 
-0.004943951006036417 
0.01726960532070568 
-0.02164808115903851 
-0.00620805396177531 
0.04398908959703003 
-0.006054626119952332 
0.02506890134855087 
-0.000506812696959498 
0.003620159659024239 
-0.007778553340392235 
-0.03153491364365829 
-0.01694121533042849 
-0.004871404077183217 
0.006620612891122263 
-0.01172141732841895 
0.000960092953027181 
0.03425637840813314 
0.001040986571473441 
0.01317283091373179 
-0.001137276572897319 
-0.001292033090163485 
-0.001982863956800995 
-0.003250184375237678 
0.008230199541877398 
-0.006051461519482109 
-0.008892065974280905 
0.003071507069716389 
-0.002194153613998587 
0.00431916853209839 
-0.009974201468043755 
0.03439518349819079 
0.0146266905535876 
-0.01157029246623151 
0.01743851141576771 
-0.006792730215619776 
-0.01125087498084391 
0.005456383188236772 
-0.02707049022306863 
0.009159479827579638 
-6.640955111038379e-05 
0.01340306876606903 
0.003557277645602944 
0.04384502927462025 
-0.01473590542946335 
0.00754503054226576 
-0.00354438561127154 
-4.072093829748586e-05 
-0.02987348387531585 
-0.01802893251851058 
-0.03030350435206306 
-0.004226615831160546 
-0.004090026915460673 
-0.01936716320442263 
0.003213255941636456 
-0.008165513848023343 
0.007583748156448984 
-0.03042462866767193 
-0.02034892925790925 
-0.003807755785221992 
-0.02140204233331449 
-0.01294425706441491 
0.0280522816022567 
0.01225783936903078 
-0.006088184193716245 
-0.006591326005118681 
0 
-0.003406846783975839 
0.003030627194623525 
-0.02275370492421108 
0.02239854353288273 
0.01213851858380535 
-0.01462915889058598 
-0.007505641615905212 
0.04028814571814272 
0.01586100465204252 
-0.03270621448557934 
-0.002383747438007575 
0.003364128915852521 
0.003262071703057294 
-0.002921561024742607 
0.02189631584718832 
-0.01679444280945476 
-0.005734985700605435 
0.01263955216103484 
0.0337003186842896 
-0.02988804432293809 
-0.003173225269611602 
-0.003521924759782278 
-0.02605799721659773 
-0.008427279192247185 
0.01519111767722102 
-0.008607649821476214 
-0.04557662223172887 
-0.01412833969912175 
0.002465983522816995 
-0.002838400617890433 
-0.01214830966544983 
-0.007780536911638522 
-0.01344514203292787 
0.001265886630626415 
-0.005251457789308262 
-0.01204045409384254 
0.01888859639558161 
0.0005122279616527827 
0.01293906614253391 
-0.004121355372795879 
-0.008620333246574817 
0.01031098146473198 
-0.02030468175365497 
-9.804843725339214e-05 
-0.03760389029129576 
0.02173925437623487 
-8.157851567082113e-05 
0.0124762843282511 
0.02040771660723502 
0.005885252969169418 
-0.01199623644869023 
-0.0001506689242932838 
-0.01244588802546687 
0.01537933947482504 
-0.00703258844369924 
-0.002871835926454592 
0.00375336446436367 
-0.03238897450419843 
-7.767698698272345e-05 
-0.008458232717004853 
-0.002057099824884338 
-0.006978063893749148 
-0.006449732967964165 
-0.01296566851225475 
0.01198265366752982 
-0.01575568358432407 
-0.004283106695126614 
-0.002236493296167267 
-0.03157405981880147 
0.004908574112065367 
-0.0002389919788217612 
-0.01730534296061999 
-0.002431823473068561 
-0.01956929630530021 
-0.006950611570782026 
0.006050830193361154 
-0.00496436768620842 
-0.03215002263035768 
-0.003807330691747603 
-0.04766091394619822 
-0.02382721161262407 
-0.01198543516829436 
0.006544379550308844 
-0.06204625081331749 
0.002421582740366941 
0 
0.01447645333322227 
8.919132116917376e-05 
-0.0404926000282793 
-0.02095782741061405 
-0.008990016376215059 
-0.01057077545619856 
0.0009215664278211119 
0.01325941898435789 
0.0310357118236958 
-0.006068902919125442 
-0.002888436282328144 
0.001786148479131491 
-0.04388051596057597 
-0.02385023473824868 
-0.008311439254031418 
0.00596483825463969 
-0.003129332963346145 
0.0002285162490320818 
0.02886661330717624 
-0.004229808894978709 
0.003291218754399344 
-0.01370761509324498 
0.006906713335068393 
-0.002661645542591297 
0.02273171117846795 
-0.01112435582789601 
-0.002647247213597543 
0.00629596396954369 
0.03339315496032221 
0.01452383656144285 
-8.066331772573503e-05 
0.01447913117306213 
-0.002836554437539007 
-0.004118987087997059 
-0.004363688536946905 
0.00501829265143376 
0.001423218621635782 
5.941012321359649e-06 
-0.0009254772057174101 
-0.04458563224387985 
0.001613113741151597 
0.002087834469572235 
0.03383799768756626 
0.01437147615618555 
0.008178181278071711 
-0.001942910913052417 
-0.0008008573634061792 
0.00127759849010682 
0.01257316292153107 
-0.002125792625165014 
-0.01724664678949932 
-0.007936743277008128 
0.01089973697986849 
-0.0007717872852316847 
0.02087302724261493 
0.0006428260532755539 
0.00448187538577156 
0.0306187818127231 
0.03403242551615462 
0.02649288830352784 
-0.0009283518491197499 
0.001554109126768416 
0.04642031473482733 
-0.004099541394317037 
-0.03145739704947249 
-0.02544223689871878 
0.009719286844290732 
-0.004050342754588432 
0.02861547535897351 
0.01582928567473781 
0.05066799377268254 
0.04470956755795608 
0.03549445481847729 
0.01690332753258592 
0.01098835162724397 
0.01605297549063551 
-0.02360022478354279 
-0.009710055574267509 
-0.01462704652553381 
0.002724353760322345 
0.01381301540557455 
-0.02513092270408518 
-0.01661294203393673 
-0.01701935117029447 
0.03533747770154826 
-0.01613671260456465 
-0.006992167373099652 
-0.001595707566091372 
-0.05709064361356422 
0.02093179303039784 
0.002046213922549024 
0.01346157522416772 
0.005472322799990535 
0 
0.0008358793128216112 
0.0001998130742663328 
-0.01796433590516838 
-0.001421245069902203 
-0.01567684916792197 
-0.0005251439864412649 
0.02670847724343756 
-0.0156580134477007 
-0.0008072419661042622 
-0.03250286579972395 
0.0003803638955802148 
0.00730437777806561 
0.00228582268598157 
-0.0008260959625854595 
-0.06055747630930093 
-0.02091989532554092 
0.01016985133713634 
-0.00152851003453958 
0.005298950087488889 
-0.0006264527244795163 
0.05177194743463048 
0.04237982940774931 
-0.01108816656063546 
0.002495342235458528 
0.001268023296863848 
-0.0001178866260028618 
-0.01249363344455205 
0.01210957681604686 
0.00829822506755035 
-0.002232626170669833 
-6.954742691482546e-05 
-0.01004915553372628 
-0.003693390346408531 
-0.01833611412157343 
-0.01245223841981224 
-0.006414502997899891 
0.0116564131422549 
-0.01266947798381754 
-0.003313075497020393 
0.01040787749598408 
0.03637953416505939 
-0.02032069827391561 
-0.007506774803908729 
-0.00501809035226294 
0.03368587990183321 
0.0008263100995374781 
0.004726016237782147 
-0.005886007837072855 
-0.01013304923122888 
0.000359801979967933 
0.003224807846453343 
0 
-0.02801552463900692 
0.003851123621699745 
0.01636073681574929 
-0.007059548666593001 
-0.001040483505202317 
-0.04682939699320037 
0.02040015004521162 
-0.04264724426844419 
-0.03989892261572542 
-0.0005935389119034496 
0.04046001486046179 
0.01870180901381497 
-0.02366222886710842 
0.0009359703399523496 
0.0224369008632073 
-0.04246128413390168 
-0.0223391118961397 
0.0001381733755675551 
-0.01073579652496697 
0.00807568488987561 
-0.04983498593648929 
0.0248368814161464 
-0.008561945884404305 
0.0118826687833083 
-0.005542283746507863 
0.0309466793833432 
0.009978084414414589 
-0.01119892277023882 
0.01079706533613952 
0.002200556859014626 
-0.001934221224503908 
-0.03756814317725416 
0.004077232041088478 
0.01275727936367209 
0.04491993778063277 
-0.01374081351807379 
-0.03936315391636407 
0.01036782506409245 
-0.007474270042254162 
-0.002838224736053956 
-0.01899634639816187 
0.005781537803718113 
0.008561461785825257 
-0.02816671860699848 
-0.01950652549249873 
0.001179229888214549 
0.006735145413749922 
0.003080216034706135 
-0.001799807855585978 
0.0006793786300409306 
0.01107699040519567 
0.001853901564023762 
-0.0212874650849315 
-0.000942402904175995 
0.01497864513699845 
0.02331577512882832 
-0.04916357424158514 
0 
-0.007233180471678839 
-0.005826203579305318 
0.01035729316323068 
-0.007049976713278612 
0.02234851371976365 
0.006860876722271214 
-0.04433520147647287 
-0.01149908004117096 
0.0001508655734662252 
-0.03187758877750802 
-0.0341021384388527 
-0.01077076496655108 
0.007375544871750809 
-0.04267767812277591 
0.001808448791306465 
0.003450799680103936 
0.0008133644948866123 
-0.004506391846560367 
-0.02259707805790813 
0.03318005683218563 
-0.01005458028865689 
0.0026204709516919 
0.02002305446237387 
-0.005172512755073581 
-0.01872140907450169 
-0.02757927405593196 
-0.02615467033341179 
-0.01017004995136148 
0.0008871292274079349 
0.01151989137907651 
-0.007268616514005085 
-0.001617991799994825 
-0.02245591148529113 
-0.007351353639242491 
-0.003144959791156199 
-0.009824759537280434 
-0.0004550467537687431 
-0.03468677614706817 
0.02407569332407123 
-0.01118957373937339 
0.01906249371314244 
-0.02840303138053219 
0.003753939696893343 
-0.01140009506291474 
-0.003202529827063296 
-0.02138436669191614 
0.02363921804395561 
-0.0279153935431792 
-0.008503430143015751 
-0.02062287002736233 
-0.01923825234761185 
0.04043633517533904 
0.001490608913887102 
-0.03127904962196008 
0.04772187677657642 
0.02101771103764546 
-0.01749585500023286 
-0.03380749426697585 
-0.03471046390346057 
0.001911436340945513 
-0.03175943654140204 
-0.01949124401668587 
-0.01392653201718652 
0.02444609922299262 
-0.02322403506589751 
-0.01549666830765404 
-0.006015945673223552 
0.02535229285076159 
0.03111181427234249 
0.03594975737480479 
-0.007801835577007147 
0.01277802637487585 
-0.010835484270159 
-0.02439368440122325 
-0.004774353597397564 
-0.0005981855054042163 
0.01259638085983526 
-0.007592519202203537 
0.02154018324567892 
0.01320353502202079 
-0.02428109625200787 
-0.01418333223377416 
0.03794330846293473 
-0.04417105956378495 
-0.007951832354514257 
-0.002856047092589043 
-0.02761083401153491 
0.0002977939317233207 
0.02347719204323575 
0.001683951281364323 
0.004071753753259414 
0.03281306846361878 
0.01844159090948375 
0.004621908020147587 
0.006302895088257426 
0.005417040326721616 
-0.006234609835034382 
0.007801519346509697 
-0.01287174619423645 
0.01138306521513163 
-0.005240037458030935 
-0.0302120550208324 
-0.02163993526792106 
0.05604568935873379 
-0.05185101936137552 
0.0462161107394049 
-0.02463647462624346 
0.02358324215208714 
0.02965058112833856 
-0.0002943578244379777 
-0.002783588300910092 
0.03633622926197307 
-0.0001860347862059749 
0.03444443931123367 
-0.02231910538068624 
0.04812535467516637 
-0.01616530263682954 
0.02011461194657013 
0.01515368122946318 
-0.001645513810484567 
0.008995097223725041 
0.01991719190545511 
-0.06428525580675566 
-0.0006129009149294678 
-0.01030531506969275 
0.02654513146893082 
0.04807701150746821 
0.04089317257532959 
0.003585874902803586 
0.006199618843056262 
0.01145577704709204 
-0.0001891772703668455 
-0.0002852291659476993 
-0.03645837281146653 
0.04819101001835654 
0.0007691415638800987 
-0.005925750412672339 
0.03359129313436447 
-0.01396354602217794 
-0.006973843652663122 
-0.01975743357203648 
0.04408436568940019 
-0.01649606618311268 
-0.05954801772060855 
-0.0340598436432815 
-0.04193711737809499 
-0.01346926729542021 
-0.001743359999123433 
0.07457697630727506 
-0.01271208318932671 
0.0283691237674595 
-0.002786757465481721 
-0.02189810699746435 
0.01516955469756559 
0.002922150132725581 
-0.02561316754068653 
-0.009184464369875696 
-0.02000030681085905 
-0.0009938299584735229 
-0.0134713349961089 
1.19544586512619e-05 
0.0220294697050469 
0.02120666428362885 
0.0059114700622797 
0.02271803162128481 
-0.009266742769468572 
-0.02287815461998007 
0.00200086042556202 
-0.004982015113484667 
0.04192728454049963 
0.01534981091558696 
-0.008476693165642772 
-0.01087421718451647 
0.04803782369007253 
-0.002721380775094244 
0.0138378608420963 
0.002729757191386648 
-8.385626177817573e-20 
-0.01080829140945639 
0.01830597198801157 
0.02897438807935397 
-0.02298639852742468 
-0.0003507356138964314 
0.02268784448860854 
-0.02990839043833024 
0.03098088446879136 
0.0177621125233399 
0.002844355682647938 
0.05023627187139956 
0.007702387506889458 
0.03192479167697301 
-0.007964772349598031 
0.005963007125418797 
0.003278059329181591 
-0.0153215084328374 
-0.0009347650804488334 
-0.005618556230244788 
0.004950556776507783 
0.004690437842751269 
-0.02535283858967797 
-0.009087024625581327 
0.01744299465239929 
-0.04660448379844476 
0.04401790653799212 
0.006729920143896931 
0.04413763567699101 
2.397690779716473e-05 
-0.009209899992989101 
0.002600276159263126 
0.008514250240127228 
0.003489449197720115 
-0.01429938613679465 
0.02643591361690447 
-0.01121402896205814 
-0.01860285107822054 
0.05444445988501745 
-0.009542055538347548 
-0.02987221442341485 
0.01362169388267427 
0.002488389792653224 
0.004862099041940891 
0.006269304276059323 
0.02317743051313326 
0.02826431067190282 
0.01475522852325495 
0.00667355481902204 
0.01630992972420222 
-0.01193997183077308 
-0.03794611402801924 
0.03004253272936635 
0.02114887099340294 
0.003246558457087819 
0.01538470330190102 
0.005330783400638976 
-0.03347412307623247 
-0.005606385175072497 
-0.01368526721817242 
0.001038291876808336 
0.03062324354724193 
-0.007630294270945205 
0.007709832483148034 
0.008077690909863907 
0.002921672897789156 
0.003718973145687051 
-0.02765827712792174 
0.02688370490816998 
0.002996538177239689 
-0.003050312253666021 
-0.01109511139727854 
0.009610984695498644 
0.001585210515624452 
-0.01355003806776905 
-0.01136879951581521 
-0.03905200532216362 
-0.006530391704959988 
0.003025314976128593 
-0.02642365839575118 
0.00798293002315763 
-0.0006151203541892027 
0.02707173483584566 
-0.01086799710237632 
0.006990189796988596 
-0.00524306926404875 
-0.005407532295418754 
-0.01789695628426069 
-0.03875547138317917 
-0.0066523423904666 
-0.01910114159828358 
0.0001295007242077891 
0.006967845478689815 
-0.006193847968186362 
-0.04108651095051607 
0.000303396171902259 
0.006166781299779767 
0.03349600576602343 
0.02742044390762321 
-0.00109124426043393 
-0.006020036534574134 
0.01402999603948525 
0.003184496461241587 
-0.03207570797577863 
-0.004273358461414977 
0.004199875407756695 
0.003743986030233664 
-0.00589745316584165 
0.0238829062655174 
-0.01107437263706552 
-0.01241673591317814 
-0.006554527288167997 
-0.02365869909932998 
0.0009106440659901893 
0.00639446153894261 
0.01092368337160994 
-0.01287556577521258 
0.01381906883368586 
0.01322438902626896 
-0.01053156247012053 
-0.01190728251856147 
-0.02963117646265713 
0.009066916781097516 
-0.0001888813121116859 
0.002981402504764 
-0.02776804672972547 
0.006756411799535442 
0.0121417897380889 
-0.02020338117924927 
0.003926804332816704 
-2.964615315390051e-21 
-0.003722170924744613 
0.00280173200399833 
-0.07134913253976624 
-0.01094286961712065 
0.00138026960114475 
-0.05250645120634288 
-0.0003661609272463285 
-0.01215198797876558 
0.001474826291839625 
-0.000769394439782558 
0.003697106504822064 
-0.01281554506797757 
-0.0028707328416935 
0.003469120471474463 
-0.01225011238025983 
-0.001934049869191927 
0.05273291495652716 
0.006308927769370496 
-0.01367665884230215 
-0.01832722544082203 
-0.01316524953435391 
0.008278039133869165 
-0.0409589607100464 
-0.004149827403356013 
0.005870563836208864 
-0.001950769361600539 
0.02203551774683626 
0.02157278091616743 
0.01743155485524672 
-0.009203359064225418 
0.01417124413176228 
-0.01110653961182439 
-0.001660524941142838 
0.006447468961556274 
0.02636698156207499 
-0.01375460837519006 
0 
0.009484647561423329 
-0.01387709274154234 
-0.02104969690937398 
0.006830407258291459 
-0.00581797796459451 
-0.02311344655667563 
-0.002506192041753982 
-0.00651741258410596 
0.03929502232235704 
-0.01011539562798132 
0.0009854532367076529 
-0.01048064475893833 
-0.004027955938786525 
0.009200887521693716 
-0.01291624779656568 
-0.01651403397018928 
0.007918801333159696 
0.002428411158060569 
-0.00692992733196021 
0.002328987984741491 
0.03963115575626941 
0.003667823298948201 
0.0009582756661808665 
-0.02456140746991505 
0.00595069578226526 
0.0006284123850969828 
-0.001419505905680709 
0.001800356906731837 
-0.01307431069286893 
0.02919717768085999 
0.0008309791788437161 
0.01111948111110337 
0.01449536997539577 
-0.004219262268556563 
0.01557969084170695 
-0.04221753883127116 
0.02265628367563272 
-0.0154561112548439 
-0.005517835612836269 
0.007389791741117506 
-0.002955479153883527 
0.04550230891476654 
-0.001163569198085637 
-0.005153909001759169 
0.01982887041190813 
0.01017291246068763 
-0.0006621277146046822 
-0.010261975532229 
0.02139951213491496 
0.009837309526940828 
0.0205598686409487 
-0.01205666382755833 
0.02037855422694032 
0.007005576902387098 
-0.02039482158635507 
0.02553347345749519 
0.01343974715398659 
0.002386856968539284 
-0.01528313642920073 
-0.0001434357744723039 
0.005540730566499016 
-0.001088267772576251 
0.002684667344899291 
-0.001926741143851788 
0.02363325107563498 
-0.01843431484197696 
0.01336238049526474 
0.03394921557233756 
-0.004129966409304041 
0.0107986753117298 
-0.009146533924807517 
-0.06417325438871066 
0.01636903751088842 
-0.00307573160957524 
0.01877658051128294 
-0.005312038880097969 
-0.00852133307921433 
0.01540154205894021 
-0.00712677655883995 
-0.00131053328052478 
0.04271132939278198 
-0.002963205325169394 
-0.02201813061290268 
0.03523685187881577 
-0.01339845155347736 
-0.03306219820887031 
0.01106021927566643 
-0.04758760939176177 
-0.03576814111938528 
0.01965566980125782 
0.02767452822138546 
-0.006185827422536041 
-0.01305510036975768 
-0.0003564188082913476 
0.01224169782624115 
0.0360351555837694 
0.001518291809189605 
0.001960477496598419 
-0.01796257601852451 
-0.008022782343955519 
-0.03231925123866349 
-0.01735209951108306 
-0.05838087671486184 
0.003619989701528644 
-0.02364695821743831 
-0.001169870040430026 
0.001448610046738125 
-0.003893368025425145 
-0.004202933611397715 
-0.02233717701051863 
-0.004358761070924548 
0.01068602228702993 
0.04907932848390099 
-0.009587133487329105 
-0.005353607225738412 
-0.02183221775262637 
0.002779027550674381 
-0.00842979605462082 
-0.001838728313050002 
0.009112516484309994 
0.004037317360950938 
-0.03830123644047254 
-0.001439565049483261 
0.04304014157504877 
0.002380251482974603 
0.007240445579004491 
-0.03566332259183766 
0.0009063883550140443 
0.01395432518762071 
0.03030815393475012 
0.006857466311310711 
-0.01784608718136351 
0.007190009850123707 
-0.02682606486443504 
0.009152182151252537 
0.001151085524507361 
0.02286140446496887 
0.01416035724865201 
0.002022152399755037 
0.01235859368709807 
0.005084516887650783 
-0.01097396509120751 
-0.0276172680862971 
-0.0005195252428174005 
0.0009489330539991771 
-0.01609386173306441 
0.007948909481031751 
-0.01270863318256658 
-0.01193374909680045 
0.03491040931917764 
-2.032879073410321e-20 
-0.002438516702548426 
0.0006972424151995477 
0.02663243219740119 
0.01006293691095794 
0.01452717599057643 
-1.747005453711994e-20 
-0.02884848714473996 
-0.01029506697848438 
0.004391896689847597 
0.01730175778208317 
0.005064339254073397 
-0.01922732021966338 
-0.006319591814794014 
0.002982011464339716 
0.00263511581276395 
0.01077725874229767 
0.03073397713394865 
0.005037098016863644 
-0.03863459262876189 
0.007681324267601395 
0.01866461785696018 
0.02012244380877082 
-0.006518683337520108 
0.05184348221076315 
0.01380335197676812 
0.01915014139557951 
-0.008306064900828677 
0.01210944747504279 
-0.0003556336824081354 
-0.02147901206669755 
0.01204225714017082 
-0.0005439375143972063 
-0.004750031607672497 
-0.03519368520378412 
0.001793701085630172 
-0.01302482077969676 
-0.01177983977517273 
-0.02632368243440584 
-0.04190691960192097 
-0.04357006421671664 
0.007875853671714788 
0 
-0.007139591553148587 
0.002042603729787552 
0.0126091543229054 
0.009541517363591837 
-0.008567337676618646 
-0.02203878341814165 
-0.00395575344344902 
-0.007883338985102255 
0.008961259055966576 
-0.004457572586082586 
-0.01369960969492505 
-0.03031386641071909 
-0.008476235565417649 
-0.003976607751436222 
-0.00241632351166297 
-0.005950119742298668 
-0.007961296397910874 
0.001894392837098388 
-0.001389994634059486 
0.009082726268283872 
-0.02075290767533329 
0.006795706943681124 
-0.008507794669208197 
-0.003317562737044881 
-0.01410156560043646 
-0.0001256310329656468 
0.0468602069613817 
0.04381988316702484 
0.002478131414837716 
-0.01080419877668951 
0 
-0.005996984364211389 
-0.001740845289445063 
0.0007340549015114959 
-0.002751080160134159 
-0.03649555865124069 
0.01359333270160944 
-0.03776470663110011 
0.06638632091495818 
-0.0083647769011595 
-0.02054513856913496 
0.004834001826704364 
0.03412026034063095 
-0.01140511787096266 
-0.002118920139062475 
0.005220848885180132 
-0.0003070253974759258 
-0.006188794152304235 
0.01670756103755627 
-0.01270702556881729 
-0.0193344498221755 
0.009074406460666817 
0.08258529132880019 
-0.04859348136021947 
0.04097932713105487 
-0.01688160194166463 
-0.01875584556781702 
0.006485829180280968 
0.01529214795881054 
-0.00344974001354283 
-0.003851901506939347 
-0.003551346115716679 
0.02045155781245844 
-0.01137037938686139 
-0.007371888809641024 
-0.008764918627742639 
0.01681867077332377 
0.007926794153828052 
-0.009761634943734937 
0.002115551466092581 
-0.008573085620679075 
-0.01318798370820136 
-0.02421654654338889 
0.008921366465918998 
0.003870564045119762 
0.01377614636538666 
-0.02646894637504354 
0.01811385949076655 
-0.007526520063870233 
-0.01850139892257113 
-0.005236795842102526 
-0.02258352425843111 
-0.00384734390297602 
-0.02795458333006931 
-0.01383247340828834 
0.02067423754547073 
0.01759006347140822 
-0.002919454180982284 
-0.0178370379849621 
-0.002184955694772368 
-0.01063330868456571 
0.004661184437771131 
-0.001137291627368249 
0.01299153255193746 
-0.02494146219885571 
0.0131610223848004 
-0.01160791957818539 
-0.03666552623638416 
-0.007635023224695447 
0.01490451971482692 
0.001468629568063278 
-0.02227916952420084 
0.02806350453098785 
0 
0.009631568250055395 
0.004984163927834079 
-0.002960887166543409 
-0.003624829287193502 
-0.002876710811139511 
0.006670895054168509 
-0.01142617357776535 
0.006742624517373778 
0.0351276458407521 
0.002587527149864747 
-0.01124398802898095 
0.01019289429796729 
-0.004010323324549986 
0.04326957741296919 
0.007384290478956865 
0.03021511491186177 
-0.002756940942838282 
0.03351977595099528 
-0.02257299878456966 
0.004130761340655122 
0.002500844676456623 
-0.01317215683326568 
-0.003443143186586853 
-0.005290882993061786 
-0.0118681243003402 
0.0009745307765494738 
-0.02064721772855426 
-0.02213881033414038 
0.01285779091593107 
-0.06185655844598704 
0.03339913260271963 
-0.01936907847380106 
-0.003998459339975333 
-0.0127941316537986 
-0.002057396223496011 
0.03712303486726058 
0.007177757947069932 
-0.03089045622556892 
0.02787781790514858 
-0.02958690955754409 
-0.005588971911247216 
0.01132710497850554 
-0.004812133714794323 
-0.02378810340679828 
-0.003660840838812345 
-0.04263720399814022 
0.002499534641014758 
0.0106593299388804 
0.01552658168487341 
0.06008366459343741 
-0.006919694949027213 
-0.02692281813432964 
0.001018736439310018 
-0.00570934767905863 
-0.02293331050304497 
0.005729136430034527 
0.008801827948533044 
0.004278064654326007 
-0.0161552266196279 
-0.006892171200397888 
0.001849563111039651 
0.007658161779144769 
-0.01235413817473942 
-0.003227028076588858 
0.02900338378281443 
0.001090481127644953 
-0.03982135794306244 
-0.003748780021785317 
-0.01383942896216838 
-0.01533317941117361 
0.02170244858679979 
0.03787628471692506 
0.007573464135071115 
-0.0153547460027155 
-0.05397344123893249 
0.01919794131624811 
-0.01103476042801853 
-0.002951325729898333 
-0.06806989672496723 
-0.006705180353955151 
-0.02476212662980338 
-0.007599614136878187 
-0.03885882018112018 
-0.04374914852898644 
0.01134340717162029 
-0.06370617611582226 
-0.01871509043518996 
0.009834782238500799 
-0.007185240610158058 
-0.01387957172267904 
0.005137239518448943 
0.008507277641915679 
-0.005135363483501772 
0.01391007284487457 
0.0002420651985035659 
0.004729379940653624 
0.002408198702558007 
0.02414101200422357 
-0.03630815937632095 
-0.008127339740703225 
0.001418980365988166 
-0.003430358534571063 
-0.01159779125599576 
-0.001466515649391826 
0.00184279021513785 
0.02401256711547275 
-0.002620640374436694 
-0.03452173031251682 
0.00927380461019886 
0.0004878298741094804 
-0.01033604377569174 
-0.003360054910429776 
0.0006483660374566559 
-0.009461238686285303 
0.01269274086691832 
0.02106897789714282 
0.008304782144613809 
-0.04371245749968765 
-0.0208239518139052 
0.01251228827324609 
0.007219353689263125 
0.01451284815799017 
-0.004658447593340623 
0.05193664650157387 
-0.002860103708175449 
0.03325854316923661 
0.02528645321804729 
0.000353690153835518 
-0.001477820612667217 
0.003680117416148694 
0.08727948812750262 
-0.007409100877430208 
0.002920301599645536 
0.01835700654069928 
0.0008454843853053003 
-0.02814075271949265 
0.0004864755155613791 
0.007403071392299056 
-0.01531140918499297 
0.0003560547530181991 
0.04850161399287221 
-0.01546485877643752 
0.001256466282537459 
-0.0001027263572206589 
-0.008193681369463043 
-0.01635401258724551 
-6.551270451419979e-21 
0.01229065685898003 
-0.01225241706835874 
0.002017661110087123 
0.00557740911851954 
0.005678917753359947 
-0.008437514547029245 
-0.01060088022459897 
-0.009784667358167512 
-0.02116161221288104 
0.008553521799917774 
-0.00734173853050763 
-0.01134918156852773 
0.00627291439382006 
-0.02249641292398764 
0.007454052892605972 
0.0109886013997686 
-0.04375723171589235 
0.03624403462165364 
-0.01196420555513009 
-0.04974555179361329 
0.004021980345774473 
-0.0004824918169383315 
0.001999004763696207 
0.01427435299614698 
0.01374188977079005 
-0.000189940540836288 
-0.02347162021268207 
-0.009976599673906189 
-0.003045380881910847 
0.01803256333849602 
-0.00190619883232407 
0.04549724459915214 
-0.02638394017447185 
-0.01021137942964076 
-0.001799822607815322 
0.0002924652098636102 
0.04185664029323012 
-0.02378978921641976 
-0.000971504116336922 
0.001282616638165328 
0.0125085030457036 
0.00373503812858381 
0.0003243445853449496 
-0.0008225836294672591 
-0.0001235857345706651 
-0.00781772785804451 
-0.02340895172130707 
0.0008922685881040626 
-0.0007471293531620708 
0.0178538016132542 
-0.006072951993488454 
-0.02373148915413872 
-0.008934002513643667 
-0.01699812561960966 
-0.006369230261022148 
-0.03903324625935246 
-0.004605359336331785 
0.02538542206410129 
0.004358816194524567 
-0.006274899867260909 
0.006041566566904632 
0.003162490202003048 
0.02709735854184013 
-0.03140975600004437 
-0.005797909263103488 
-9.072366218078338e-06 
0.002291459111321869 
0.002601715983723194 
0.004584581110760591 
-0.002566249188856484 
-0.02303637945778048 
-0.003560273651676242 
-0.002599887958860716 
-0.006216054261827214 
-0.008197122054716082 
0.001632372554772785 
0.0024601359518086 
-0.03600453294358853 
0.0277615979302887 
0.01036446122897043 
-0.0007955868153571794 
0.01532736972956422 
0.008539234979579088 
-0.004990652783829634 
-0.01700634769634685 
-0.007326375992484422 
-0.026259314541113 
0.01549252473291898 
-0.008116520007257353 
-0.02160193809130605 
-0.006889292410401138 
0.06027488403840152 
-0.03472277550542068 
0.01308877989710757 
0.009633125793255874 
0.0005911034068636723 
0.005725146478674967 
0.01035417267253269 
-0.01452436534970233 
0.0002561102241725429 
0.01612433241717735 
-0.001463122916657154 
-0.0004962874400153492 
-0.009864675855123854 
-0.002044660531531608 
0.0003989929490137451 
0.0334523667966771 
-0.001605254184440522 
-0.03774977787025656 
-0.009875737220479181 
0.00674273113434894 
0.003481327509018793 
-0.030484293513943 
0.01035847614059984 
-0.01076720999428184 
0.0001419125004029257 
0.01444071734438698 
0.03151410134043928 
-0.008865005622635563 
0.002656720692729751 
0.01129704091745443 
-0.03965818205068587 
0.001233598207236008 
0.01322955349945703 
-0.003758793802424601 
0.002401870043344508 
0.0004297630792080505 
-0.009676362140461662 
0 
-0.0228061383219391 
0.002280658479901555 
-0.01705816671510296 
-0.03582113489850912 
0.02034756086958675 
0.002013850894393781 
0.02437386887593785 
-0.007101763700881484 
0 
-0.009522203978867758 
0.01426982759750966 
-0.01008937020180363 
-0.0007377705325308156 
-0.0007566464161949844 
-0.01042658479818557 
0.008357359916916286 
-0.02758699431043932 
-0.03648093178068518 
-0.006383792962552271 
0.01991195199205809 
-0.005228320768147371 
0.02734946318878382 
0.01533625688581339 
0.008935847978116071 
-0.01502495882604971 
-0.002590685497699801 
-0.02422048689574867 
0.006745129408826063 
0.003906605620867347 
-0.01688227733570774 
-0.009474383754586559 
0.004651344997192756 
-0.00251085955878594 
-0.01511034351156615 
-0.0127494039982928 
0.02449530899150393 
-0.02770075059852785 
-0.006901960482271246 
0.0302873671488002 
-0.01378236393980628 
0.02350649197571952 
-0.006402476137584661 
0.01953106622552533 
-0.002021918195260861 
0.02372675577390508 
-0.006880861149171283 
-0.02460385129730197 
-0.01056911961226437 
0.002170431174876866 
0.002232692084083654 
-0.0494832308174082 
0.009362752221764532 
-0.04448337776533898 
-0.02878849303992942 
0.00415652469604559 
0.03781579703639182 
0.01816061951721876 
0.02608966512925672 
0.02940331397726963 
0.03620029080290444 
-0.01419281216146674 
0.04438557378913143 
-0.03621891051910953 
0.001383840590198116 
-0.0007750198491706038 
-0.003304343403600123 
-0.01055765016275421 
0.0129029547728554 
-0.009367117773781682 
0.01950930889790858 
-0.01477831032339384 
0.01829202906095031 
0.0002597845180101172 
0.008173186683622881 
0.01806158206245945 
0.02955544384427385 
-0.006720754677616597 
-0.004118311525712127 
-0.0226868809732489 
0.0689161097508218 
0.02228338978515209 
-0.008135095033560054 
0.00232697147982311 
-0.04179281130937872 
0.006199794055678731 
-0.02529326890736318 
0.04278455547822391 
0.002280088156223361 
-0.0002792238850090655 
0.02011136376571683 
0.008934750929567949 
0.0002174899562437039 
0.00754215494667475 
-0.004752535915333691 
0.004949665958149597 
-0.01413804809101329 
0.01670831279144388 
0.01693711638997965 
0.005646701232607648 
0.05383036782038725 
-0.01358032340517553 
0.007448008090286026 
0.0006840150953204081 
-0.03229501504773526 
0.002746750022141693 
0.006360630899682702 
-0.002322664623068243 
-0.005463960569502085 
0.01987340983935742 
-0.0006704465027310548 
-0.01136470292094539 
0.001420119228297596 
0.02122552836869663 
0.01475258500204718 
0.02648910090384803 
-0.0150151335084662 
0.03622746288405061 
0.0329584395955378 
0.005153904702970661 
-0.004936069277713135 
-0.008427001168491509 
-0.005832262966228022 
-0.003833030297819209 
-0.02230048295826002 
0.01031216678072774 
-0.001914162710403875 
0.001591459948539987 
-0.005736769839009695 
-0.001876763359012182 
0 
0.006856591546371736 
0.0006789203597403756 
0.0309838285969855 
-0.02076687748251594 
-0.009531315238979814 
-0.009136461695106648 
-0.0005370240475855982 
0.01323674645571102 
-0.0434764930840662 
-0.007459305123356096 
0.01761068873536805 
0.008604263274056325 
-0.01882366303082493 
-0.0259103946967856 
0.01723901378859257 
-0.005202835724202407 
-0.04879743795315387 
0.008806695674363662 
-0.01012465150683382 
0.008488748338127895 
0.007699896945046564 
0.01850091754149336 
-0.009416914714139057 
0.009906980169192264 
-0.007608231492449316 
-0.02795351397362976 
0.01378024254644542 
-0.008637772228632422 
-0.007843524779605253 
0.006598249451761596 
0.003316968817608969 
0.008245799646546552 
0.005444019246020056 
-0.002224641910101697 
0.005318574036255923 
0.01674006435857161 
-0.005087601399063747 
0.0006939018113158506 
-0.009746718224119672 
0.0008527099349157363 
0.01325757778278461 
0.01296807150960303 
-0.002422961462213608 
0.004874572713802389 
0.01357883650073858 
0.02205053552501652 
0.01808893887937108 
0.008694187153237309 
-0.002488477959543467 
0.01433369073556751 
3.388131789017201e-21 
-0.002017911570612236 
0.03658571396373955 
-0.009148496875064079 
0.01982832773735448 
0.005733291496664507 
0.01925302239850551 
-0.02464082740161359 
-0.02182560556348895 
0.001225237104485289 
0.002005891310875932 
-0.003865082409426413 
-0.01676674778694777 
0.004314301185177168 
-0.009194386302441588 
-0.04249710658368115 
0.008490752761185749 
0.05645264032540976 
0.004496992568683585 
-0.02356052860588845 
0.02612665525777434 
0.008336499911885465 
-0.006923366795312092 
-0.01914082636746907 
-0.006004858105825353 
0.03480501562444827 
-0.01308646413617164 
0.002390770770089161 
-0.01772834103875505 
-0.008236958825588368 
0.004490968699695209 
0.03897115154748607 
-0.05802403158878426 
0.004060867716687623 
-0.001072013688806951 
-0.001965697804231811 
-0.01110518283614045 
-0.01439490149490441 
0.009273176358911644 
-0.0003800833823858021 
0.000330513225163251 
-0.01036714940303597 
0.01869397401354808 
-0.009853766299843131 
0.02616549510897265 
0.0009043796051748786 
-0.001923691889776054 
0.0003089927078422811 
-0.0237993960263937 
-0.05197037176730759 
-0.03182371249620431 
0 
-0.006727336795380452 
-0.005459682375544694 
-0.001019965368575562 
0.02958284881107131 
0.03397350074530633 
0.03527680136180381 
-0.03684327010507579 
0.02879806964533198 
-0.03252147203711603 
0.02933777551232636 
0.009234852765208565 
0 
-0.01400761529635663 
0.0352278863876701 
0.009573747039295014 
-0.01844976452277947 
-0.01107837478627334 
-0.01008344280973109 
-0.0009059436455225441 
-0.03417534114513518 
-0.01141292484670496 
-0.0005425912729936662 
-0.01669070035441953 
0.05003187495750879 
-0.005006271705493631 
0.0002382092817942662 
0.01420438216148373 
0.03632207596647898 
-0.001841046747440249 
0.003033333632003964 
-0.01336637125571546 
-0.04340627978546609 
-0.001966412412702454 
-6.116258233780282e-05 
-0.01146035612082362 
0 
-0.01072730666101847 
-0.002107954018951942 
0.002689456148888639 
-0.001915604053659347 
-0.001898194269878412 
0.02542671792609952 
-0.0154885751079921 
-0.01050040215998806 
0.00240595118552402 
0.03919456831278227 
-0.02929715888561664 
0.0004918336158671417 
0.01514853586736396 
0.01319277610591242 
0.03165420553877588 
0.01532289967346641 
0.0173086609112307 
0.007281429168060155 
-0.00292107505840619 
-0.02262078802274045 
-0.008306015640577579 
-0.001830872350111387 
-0.01683221954669752 
0.006927881537291046 
0.0114130813513127 
0.0119077735284397 
0.002503925783463267 
0.003980623890688813 
0.05433547743259722 
-0.001264587425502842 
-0.01223546908910621 
-0.03801870794365315 
-0.001537612765323042 
0.02087182290469723 
-0.001137402571937281 
0.005560069753969346 
0.001487125392493058 
0.01091638404969249 
-0.02899213269491333 
-0.04779109850739029 
0.03065049992321544 
0.03222969759093993 
-0.01171183923052322 
0.003366628747525105 
0.02445895788792789 
-0.001280310956072988 
-0.001234264163182269 
-0.01195588719420828 
-0.003201781427769367 
0.005046892406772461 
0.007292494407627485 
0.02238437812012908 
0.0230688033180778 
-0.02335488840232704 
0.008965597182709126 
0.0122721732539116 
0.02535077007785259 
-0.01570314109852414 
0.005929675478846228 
-0.03494064077704851 
-0.0164436626433171 
-0.01299247786854099 
0.01869508551614067 
0.007365845104774425 
-0.03253228611608228 
-0.004457275552258678 
0.001277934794114221 
-0.03536592262731839 
-0.02407153346991122 
0.03983096977245235 
-0.02623612727606119 
-0.003454156020732891 
0.01614974430607317 
-0.03795207229115169 
-0.01223251132578732 
-0.00201112146006213 
0.0120695301011064 
-3.388131789017201e-21 
-0.02336566728049498 
-0.02350036638512207 
0.007272107485612358 
0.02563863339756652 
0.001157334623810655 
-0.0143942885085411 
0.0105819391761285 
0.002134601735408207 
-0.008194414728853305 
0.03556781284177928 
0.01141807457022176 
-0.0007801805205437738 
0.005863506515798984 
-0.03604049821102524 
-0.002582857270718661 
0.01075090279317045 
-0.002623070025936777 
0.01852374175961447 
-0.003077129208657476 
0.01877066703324451 
-0.0255833404429987 
-0.0001660026906373006 
-0.0002531886036514554 
0.008767713519226098 
-0.02089904945069771 
-0.006264264428292129 
0.006886034148135311 
-0.01728741146125474 
0.004619457268569113 
0.005088624017176428 
-0.01262267550835169 
0.02336524601580874 
-0.03292179573167479 
-0.01283285786217775 
-0.002994012571297017 
0.04756143655755567 
0.003513946042856965 
-0.009352988184762885 
-0.004233523219346187 
-0.03336867664519878 
-0.0296001724165651 
0.002733201460692593 
0.01928961647166296 
0.02137714615320651 
0.02288519958408326 
0.0008447434064010113 
0.005180305081150399 
-0.0170546635795868 
0.009417999892548995 
-0.0169462205811769 
-0.0184511304551096 
-0.0098339488837541 
0.07099132649863238 
0.01625099638821968 
-0.02411435900649138 
0.002649589487351166 
0.02359022983265162 
-0.005609885344328445 
-0.003699838065483792 
-0.01012755405904511 
-0.04395845896780581 
0.02490980358818606 
0.01058322688409883 
0.0265290220450403 
0.03180156928353024 
0.006467935726846411 
0.01335999873288108 
-0.001074560263253856 
0.004911038215374125 
0.003058291614921607 
0.0007755927380280002 
0.05841059176369492 
-0.00165082569986062 
-0.03718912829261416 
-0.01816350033368225 
0.002396458389497721 
0.0199936425122603 
0.05437951134731826 
-0.03029934282131406 
0.0224869819168355 
-0.01466670050100805 
-0.0004494384823744171 
0.01012905379550331 
0.01313856312670191 
-0.007670336134191916 
-0.005870574870197587 
-0.04544375181041203 
0.002371148228815935 
0.01520580600908221 
-0.02796988838681545 
0.02419164010417477 
0.002092942507012717 
-0.02402612734009003 
-0.04570899978961826 
0.03657104560085517 
-0.004568332527612758 
-0.005782035256769584 
0.02169989374414336 
-0.01831561002141247 
0.008586612770680964 
0.004903254386590158 
0.0006797955267559416 
0.002484766820589655 
-0.0120820697928225 
0.004951594993627743 
-0.05203087600713766 
0.01364390326050715 
0.03705447410109344 
-0.01428881014966703 
0.0003348886236619662 
-0.02268273319552212 
-0.01716751273468791 
0.002019416101560837 
0.01036373037350362 
0.001777767818857881 
-0.00535476737590062 
0.06054836989243174 
0.00806181808325576 
-0.004097653272211805 
-0.002325236732652029 
0.001485475104531516 
-0.002286378823939944 
-0.001100084931327524 
-0.01358982018510506 
-0.09187587903219688 
-0.006251951274734237 
-0.01484268932036097 
-0.02348057710069652 
0 
-0.02029675167994898 
0.02891655432782141 
-0.0002280942365034059 
0.002203186572371008 
0.01275299024220779 
-0.01230253269831101 
-0.007689176882865262 
-0.01271521893346373 
0.04546371413513771 
0.02877518379670328 
-0.01343990002877736 
0.02848693753854908 
0.01038804333446782 
-0.005217436455844156 
-0.01277567935292051 
0.003095196454491578 
-0.03016048433041856 
-0.005864240163354133 
-0.001570188156876577 
0.01127367594967132 
-0.002505546009355935 
0.04220672039548318 
-0.003787213522772161 
-0.03716008059471508 
-0.008551855673915145 
-0.0001580876765251239 
0.001532019121953812 
0.004626118316995147 
0.02218774722746326 
0.03525500095697655 
-0.02014272101328599 
0.00344576881707598 
0.03284245371053546 
-0.01991654339502388 
0.02182704882133865 
0.004914114022724113 
-0.01271415745300923 
-0.0007590691156987972 
0.0155881122919795 
-0.04212066761950981 
-0.01688140317067868 
0.02922749771773243 
-0.007138221725290299 
0.02092339762719422 
0.004879814174757535 
0.01579161793932897 
-0.02888204391411839 
-0.03681192512826582 
0.02758377743586607 
0.004288992856940717 
0.0405674283254461 
0.001288135937113853 
0.01106950917206003 
-0.004673225961676948 
-0.0251101910259165 
0.004103710837134499 
-0.02921041771540461 
-0.01185752530970484 
-0.01406313402031078 
-0.00483640180509401 
0.01978944424989928 
-0.0107902516356462 
0.01499195427674959 
-0.01096810815534364 
0.005996002397154312 
-0.04416178177098167 
-0.05004901902162895 
-0.003066332613030493 
0.0277201473239289 
-0.0165821050145713 
-0.002435669211781876 
0.02058160936513763 
-0.01726657442378214 
0.02326266933945929 
0.003077622588242361 
0.02112341451409992 
0.00567787766967424 
-0.02017297101613234 
0.02261370520119377 
-0.01214790603041871 
0.01864154585889558 
0.009998827499902139 
-0.05602364848148727 
-0.02637829930469665 
-0.009266239851113002 
-0.001794078336755908 
0.01698735566402413 
0.01612078674830776 
0.005222218453570314 
0.01240445520838597 
-0.02171330024837472 
0.01054115451290972 
0.003755350303831141 
-0.01103170611595128 
0.03734487482043119 
0.03601552043685282 
0.01261973438395929 
0 
-0.002722899360665278 
-0.002180854161973173 
0.005259183955095937 
0.0005705368927449101 
-0.01196230698070082 
-0.01302822732322584 
0.007125247642819394 
0.01616426058360719 
0.01294992389074963 
-0.01070691968978315 
-0.007282355663324557 
-0.0133500856549855 
0.02453639482867865 
0.008657037634026898 
0.02037503664555138 
-0.002057391641835448 
0.01514036753576427 
-0.01682273696944114 
0.0286790079426429 
0.006619699951188107 
-0.003385398903401649 
-0.007657045250778294 
0.01816643836927634 
0.007576185630713008 
0.01570452274871447 
-0.004614898401519075 
-0.004575954170518053 
-0.01335085648842002 
0.006350520555345815 
-0.05864104774200391 
0.02757439112024691 
-2.878986295573827e-05 
0.05277478206936653 
-0.005476344360925364 
0.002703295975224108 
-0.0006860385175458976 
0.001091940422608917 
-0.01869526001782605 
0.01032837779887126 
-0.0476570509029397 
0.009635248584908164 
0.008284403507362953 
-0.008572083210049982 
-0.01871037361535314 
-0.03082331382941001 
-0.01948137615249702 
-0.02526624940323571 
0.0007513134723982015 
-0.0005678103164586488 
0.01637204363920687 
0.007265641689000698 
-0.02934933526090251 
0.005801016187702449 
0.003638543507914947 
-0.003766920894449876 
0.008390713352931931 
-0.007226373578665393 
0.01739883022076022 
0.02155739568166343 
-0.002277903422609112 
-0.003679284635939948 
-0.006657500428641551 
0.02841044632534589 
0.01418951499280586 
-0.0002591764384374478 
0.02985772721946604 
0.01881251945955089 
-0.009533322169372926 
0.03966882449249461 
-0.01160079142565565 
0.01604097534215112 
0.002441852072695717 
-0.01468085042026853 
0.0175332510633192 
0.01727610652211525 
-0.02001370869268088 
-0.003821831509186154 
-0.03000628873050796 
0.00425392018781415 
-0.02800817528106788 
0.008275619298411585 
0.008420403018650678 
0.02438388562251968 
-0.006131681703399652 
0.000661761865289412 
0.009069938424899482 
0.001707366434397292 
0.02671479804108651 
0.01533305843696776 
0.03557334781020959 
-0.03447615399876755 
-0.01659845405613887 
0.02514879541900817 
-0.02221526950548403 
-0.02600888865411094 
-0.0304323211836535 
-0.002639627561293971 
0.02287697495207506 
0.008097374716259919 
0.004603160874284955 
-0.03110937394657122 
-0.0230091966734196 
0.0004794650204094534 
-0.01707644396319413 
-0.02463998191710442 
0.03233417831057369 
0.02404153696815447 
0.002381082734428174 
0.007942142726030237 
-0.01050701343255834 
-0.02916049327911385 
0.0406910877969285 
0.005213478131690088 
0.003100090671414561 
0.01610897314401283 
0.037780103010136 
-0.02405575686837176 
0.001178519528486396 
-0.02012702498761614 
-0.001128539124743909 
0.005774769473501652 
-0.0143673211587868 
-0.01087540307370866 
-0.03591958183354945 
0.02491815320469385 
0.01657764404967896 
-0.01442560147015041 
0.02200676774497439 
-0.003134308617504648 
-0.00879012488107863 
0.04723812020651266 
0.02089901608435479 
-0.01365100294084134 
0.007698045697402003 
-0.02420782473840886 
-0.003231421617838323 
0.002652495686426698 
-0.00973920092884439 
0.007221056303183204 
-0.02108860502941443 
-0.01349272735061267 
0 
-0.0003318150498643517 
0.009547480998549764 
0.01815013754049706 
0.02688576785616279 
0 
0.001423858913383444 
-0.03832271504566155 
0.008357358808841482 
-0.05511444411632722 
-0.01603233959004693 
0.02945755497417513 
0.02172594097824269 
0.03798825640262322 
-0.002582952115752529 
0.01825490016097738 
0.01732471899913948 
-0.03216314812565978 
-0.0003610785245505712 
-0.007734077459485279 
-0.01283900572887846 
0.003573855882921405 
-0.00826825341400524 
0.01754033563248349 
-0.02694445499504226 
0.0004568671281703741 
-0.001892917219792744 
0.002653358371500204 
-0.01366779403615306 
0 
-0.01205192415036708 
-0.005299752731869593 
-0.01206267406319857 
0.03216205431389646 
-0.01283973211272743 
0.03958072063458828 
-0.006825536340261126 
0.0239880401066042 
-0.039833460828408 
-0.02530719584190333 
-0.0145878803369741 
0.01125581906462469 
0.005885789460884145 
-0.005562789663644463 
0.004770330563485502 
9.620707800024156e-05 
0.006489453990816186 
-0.0006754466838731824 
-0.001653052018536589 
-0.009892542391558838 
-0.01358906637368866 
0.01851355147684631 
-0.006428965005699073 
3.42455614258673e-05 
0.005957684064706919 
-0.004080689438377896 
0.01642627850789608 
-0.009948539752715478 
0 
0.03959054795196133 
0.01726773304227248 
-0.002327399302572951 
-0.003525882097668703 
-0.001686328156801498 
-0.001901247909667793 
0.02779269502343635 
-0.001348200104867203 
-0.0206782774777113 
0.001603263784285806 
-0.0345331046082438 
-0.02747729404149298 
0.00725579948120764 
0.00717156743959763 
-0.001277371782950824 
-0.03023280544967709 
0.04537673902102757 
0.01902432120665664 
0.03479979202391249 
-0.0002072670704043806 
0.0008672585188982198 
0.01971593579869408 
0.003428299793333684 
0.003087311938211151 
-0.0271192488286761 
-0.02125021588134736 
0.04730584836233458 
-0.008634907411355286 
-0.01663562653052747 
0.004227059913837474 
-0.01260216011151746 
0.02710462985535856 
-0.003134241550030239 
0.007484426885643551 
0.001886521085828534 
-0.02142519204811139 
0.007205488685766212 
-0.02221206713075754 
0.00917657031600682 
-0.003472107132710874 
-0.01289749578137367 
0.0003082327305156115 
-0.01982239396052306 
0.01478809936753545 
0.006830569861964207 
-0.01555084522537967 
-0.007013363290159945 
-0.0285799369918024 
-0.01274068426888874 
-0.02554647132110021 
0.01373249737418699 
0.003889024219894567 
-0.0470220106917633 
0.0199296594766699 
-0.0043003604501089 
0.002810991644131 
0.02576552534207348 
-0.0009286142948356098 
0.004089315006922264 
-0.01742101723975569 
0.01987678785651683 
-0.02638760668443201 
0.01298052190381613 
-0.002672374859133196 
0.0215012498396605 
-0.02761551923498848 
0.009977681576856544 
-0.01389638732351163 
0.009726759342824949 
0.02631171702042839 
-0.03700241312781574 
0.05723091223587889 
0.005685304247336706 
-0.002558871317300984 
0.02811958848175356 
-8.470329472543003e-22 
-0.005681138875537691 
-0.001510018756127374 
0.02436442148510901 
0.001332346502897988 
-0.03388774287427812 
0.0002950207491971478 
0 
-0.001028735444780514 
0.02499608909872002 
0.004408467742000206 
-0.05149855153883642 
-0.005319920706938683 
0.02355965486434259 
-0.006578932748501854 
-0.002258683604197355 
-0.009285001244948504 
0.02168899590276832 
0.05584399208922002 
0.02461115972609491 
0.003060606294091149 
0.01616829321320892 
-0.01067305155795847 
0.05567870352574282 
0.03609076044963462 
0.001217108403049036 
-0.02704449604816858 
0.002318066558739543 
0.004607276547594385 
0.007078265064452475 
0.01598096991757018 
0.01193912109734489 
0.004134793263851269 
-0.02149306136316311 
0.008862373533182182 
0.01948653018999727 
0.0459759209410097 
0.02264493083892681 
-0.03750395448664721 
-0.008911755097890472 
0.01447454571084817 
-0.001980923666730351 
0.005853753174824511 
-0.01889807647874698 
-0.01692925980527645 
0.00602101268956719 
-0.01823909868253126 
-0.02612369033653854 
0.006265981264479525 
-0.02353634325206016 
-0.04303475378398203 
0.03829030601735383 
0.003051968690032779 
-0.02081789649894617 
0.004832442439391149 
-0.005333961600363692 
0.02217609403400035 
0.0001473555918915503 
0.002040625358148112 
-4.526146874282068e-05 
0.03057860171982826 
0.002631824845861192 
0.01940584446670165 
-0.01284332924300372 
-0.002493842698373576 
-0.001956942133628967 
0.02427606951324468 
0.03504183248732728 
-0.00509620182704581 
0.01447528910469819 
0.02913776954839111 
0.02130784185950762 
-0.01618514212156638 
0.005376831882727947 
0.004776169218773499 
0.01372844079491984 
-0.001503458232568519 
-0.01912981093568391 
0 
0.004708408309644305 
0.02104519454436539 
-0.004607649946186661 
-0.01868055235520952 
0.008033996028756405 
0.01343860191484062 
-0.02721439265775697 
-0.0005800965516610724 
0.00425646588345589 
-0.004284248709656454 
3.777800701713173e-05 
-0.00954216376514124 
-0.01464208901302599 
0.0421652398208566 
-0.008486073413390523 
-0.001490915267933278 
-0.01898570505700566 
0.02442030738064221 
-0.002717019226977609 
0.01261669082711933 
0.0001861943358020174 
-0.03964118149204276 
0 
-0.007474396614173116 
-0.001590531372759382 
0.01920893620489531 
-0.01900759834406749 
0.003600009557827715 
-0.006166669362159652 
0.02492401143616603 
-0.0007204156007984844 
-0.003735072927690671 
0.01177635879042374 
0.04170730564112669 
0.007487202002965451 
0.004462093144616135 
-0.03718367078213151 
0.001002512474353676 
0.03228204569853892 
0.00804053643591148 
0.0316292323798476 
0.0001387486991698714 
-0.00032986394146793 
-0.03474144721380845 
0.008963120826698891 
-0.002758795919414225 
-0.0004821022255439207 
-0.01576475517745157 
-0.02864636435749091 
-0.01257744986356337 
0.001732343649110949 
0.01199473358677922 
0.01933144143608324 
0.00643328275668578 
-0.01371386123104223 
0.02664619834168404 
-0.003640875174395476 
-0.005971664923798255 
-0.01915258114116206 
0.02172785882666219 
-0.01124110801494612 
0.01134864620434577 
-0.02815164186333411 
-0.003583927224530977 
0.004336076678525025 
-0.01044178189748931 
-0.02403499513784145 
-0.01662381047886392 
-0.01016436565982563 
-0.009375128759594387 
-0.01344940907739632 
0.02755520429223636 
-0.02833126507735173 
-0.005950554286833635 
-0.03272512077485649 
-0.0325823264833118 
0.005358196329342828 
-0.0280421428273784 
0.005022803898135407 
0.01569811683940382 
-0.03060567223392711 
0.005985758242591068 
0.01420668688859884 
-0.00254868405331585 
-0.03857353540618379 
-5.892866964916481e-05 
0.02789202639745827 
0 
0.008639911658865643 
-0.002696633389504926 
0.002867627536201642 
-0.0194521010249461 
0.0001463478196398081 
0.006843377484402904 
0.004124776088825435 
0.01097143281969445 
0.003670015199465392 
0.01810201484234489 
-0.01639598454687449 
0.002176658176632985 
0.01113914221304699 
-0.02266792375894739 
-0.02909317870861329 
0.008403286034033917 
0.004851661908740025 
-0.01031242698420621 
0.005989668166870252 
-0.0004413346255088118 
-0.02145515539585358 
0.01264396797667304 
-0.009672961476187554 
-0.001634805134466562 
-0.002809746310987002 
-0.003035399291871974 
-0.01599506644100667 
-0.01295169988002443 
-0.05100922188589688 
-0.01456121978501249 
-0.003680143345914841 
-0.005419946675636436 
0.02034810531888069 
-0.009505114961906569 
-0.006832898422971967 
-0.006688137971903256 
0.04381197305195651 
0.03566067067986711 
0.005749874647068773 
-0.01981126049587059 
-0.006915173539752332 
-0.01528479989667811 
-0.01218125399526365 
0.03899692240765251 
0.002105247684362603 
-0.02818305916927896 
-0.01059489821894168 
-0.002061642592771496 
-0.03621169976331115 
-0.01011682324461641 
0.006670865552578293 
0.007351604803051853 
-0.0183144511370655 
0.0006052750455525648 
-0.0231374167493113 
0.0192108546615991 
0.03144342195960495 
-0.02740603440442287 
0.06346582753683498 
-0.02165264790599526 
0.007025938562231404 
0.05341752302043385 
-0.001227063822380624 
-0.001072857491314928 
-0.0005832253185634013 
-0.008570529276235677 
0.03214083443803143 
-0.007261285549623831 
-0.01378315290952238 
0.006227295976521257 
-0.04154589553890913 
0.009295948447954406 
-0.02370504506047439 
0.003126400020880661 
-0.01744641548526372 
-0.0006795618564529578 
-0.00430485073379475 
0.01864002700808786 
-0.00999739077761304 
0.01347178030296577 
-0.001972460591029971 
0.001714247866466076 
0.02402560603443852 
0.003074011694761219 
-0.04079610097614915 
-0.005851291827304034 
0.0004718033695034981 
-0.01659460744017047 
0.01980472449411002 
0.07159579930636467 
0.01129904569959855 
-0.01661547085880322 
0.01271476805371238 
-0.02031252081706369 
0.01193459495400061 
-0.0005447340197293304 
0.02271581349159039 
0.01310529132355844 
-0.0005045511335140873 
0.014684452113703 
-0.005551387395764295 
-0.005967642809340958 
0 
-0.04889959641245856 
-0.01337483339835613 
0.001401451026302359 
0.003728368721310547 
-0.01536305387338156 
0.02969751222570188 
-0.02307214418949095 
0.0006305854978862189 
0.009679650791863999 
0.007933423525387485 
-0.002708224422926798 
0.02469105015098007 
0.01105164894429555 
-0.006586922710012977 
0.0140079104714297 
-0.002709614807229145 
-0.002076491850349737 
-0.001282442673462326 
-0.001468663588669291 
0.009620636921831299 
-0.0007756711879774226 
0.007439337299584441 
0.04151295057395794 
0.01652934109642344 
0.04304286595099579 
-0.001296157074551324 
0.02624475866034166 
-0.01271691591751919 
-0.01289840172094303 
0.04020816044763907 
0.0002746518506152484 
-0.01613017860130206 
0.003919577777163404 
-0.0006196990381963402 
0.0234369167189791 
-0.01686610306010689 
-0.00306662423816169 
0.02761978509323878 
-0.007528175923706988 
0.01743854611333238 
-0.0007619446873610022 
0.005097158992362812 
-0.01992118484573325 
-0.006856357550392478 
-0.01976898759159128 
-0.03184757920452411 
-0.004758300531667892 
0.003930029024947812 
-0.002660928906640623 
-0.00151097265855571 
0.01082122868825284 
0.005453439175255777 
-0.006569552414839721 
0.02183560858518679 
-0.001628106511670247 
0.03057971649813748 
-0.01070407804117281 
-0.009365578843804095 
-0.005798525057917471 
-0.01335173348247494 
0.01658885822352668 
-0.02908057694220257 
-0.001883696849232201 
0.01676507466688327 
-0.03408338815038305 
0.04624176115464959 
-0.02296127281442669 
-0.002008335764467908 
0.002750425184175944 
-0.005520336845733028 
0.04249402066307083 
-0.02567271781364374 
0.008194691675015502 
-0.007477711759290161 
-0.001190852081424234 
-0.008436606048312275 
-0.01426171015305814 
0.0002325318629810303 
-0.01122335615138923 
-0.01007146453471159 
-0.02572442386888475 
0.003394005005601883 
-0.007817568727121076 
-0.003455530176467614 
-0.002397972882242529 
-0.03680082130994471 
0.01770259025121953 
0.006100797152566873 
0.007986574867177527 
-0.01281423306847362 
-0.007176164006896538 
0.005550009049218656 
-0.005355803564663694 
0.003057839936658299 
-0.006933409175517099 
-0.006533972440766691 
